
//<![CDATA[
// submitted - best evaluation:73.15mph
// a few things don't have var in front of them - they update already existing variables the game needs
lanesSide = 3;  // cover all lanes when agent is at middle
patchesAhead = 49;
// patchesBehind = 5;  // cover car length
patchesBehind = 10;   // also good performance
trainIterations = 10000;

// the number of other autonomous vehicles controlled by your network
otherAgents = 10; // max of 10
// default 0

var num_inputs = (lanesSide * 2 + 1) * (patchesAhead + patchesBehind);
var num_actions = 5;
var temporal_window = 0;
var network_size = num_inputs * temporal_window + num_actions * temporal_window + num_inputs;

var layer_defs = [];
layer_defs.push({	// input layer
    type: 'input',
    out_sx: 1,
    out_sy: 1,
    out_depth: network_size
    });

// 3 hidden layers ok, single hidden layer ok

// 1st hidden layer
layer_defs.push({
    type: 'fc',
    num_neurons: network_size/8,
    activation: 'tanh'
});


// 2nd hidden layer
layer_defs.push({
    type: 'fc',
    num_neurons: network_size/16,
    activation: 'tanh'
});

// output layer - 3rd layer
layer_defs.push({
    type: 'regression',
    num_neurons: num_actions
});

var tdtrainer_options = {
    learning_rate: 0.001,
    momentum: 0.0,
    batch_size: 64,
    // l2_decay: 0.01	// L2 norm - default
    l1_decay: 0.4	// L1 norm sparse weight at the end
};

var opt = {};
opt.temporal_window = temporal_window;
opt.experience_size = 3000;
opt.start_learn_threshold = 500;
opt.gamma = 0.9;
opt.learning_steps_total = 10000;
opt.learning_steps_burnin = 1000;
opt.epsilon_min = 0.3;
opt.epsilon_test_time = 0.5;	// no random actions onces fully trained -- default 0		0.05 from tutorial
opt.layer_defs = layer_defs;
opt.tdtrainer_options = tdtrainer_options;

brain = new deepqlearn.Brain(num_inputs, num_actions, opt);

learn = function (state, lastReward) {
    brain.backward(lastReward);
    var action = brain.forward(state);

    draw_net();
    draw_stats();

    return action;
}

//]]>


/*###########*/
if (brain) {
brain.value_net.fromJSON({"layers":[{"out_depth":413,"out_sx":1,"out_sy":1,"layer_type":"input"},{"out_depth":64,"out_sx":1,"out_sy":1,"layer_type":"fc","num_inputs":413,"l1_decay_mul":0,"l2_decay_mul":1,"filters":[{"sx":1,"sy":1,"depth":413,"w":{"0":-0.019057921176160716,"1":-0.011755342655890628,"2":-0.0012805677309895168,"3":0.08861907783316494,"4":-0.019819449726232657,"5":0.007787854985552878,"6":0.004414067618663538,"7":0.0686985312663446,"8":-0.02706637441723001,"9":0.07282141652976376,"10":0.06581604267438018,"11":-0.05680572564152432,"12":-0.004959116076945553,"13":0.04669423401378758,"14":0.08063568729999641,"15":0.04042031178967376,"16":0.018365497050134672,"17":0.015710764591190737,"18":-0.016933269683542574,"19":-0.0396559535153312,"20":-0.0013420506553488585,"21":0.06771722036832156,"22":0.03714806381942877,"23":0.07794101720540733,"24":0.06744607784280165,"25":-0.1099811271005765,"26":0.010263422346238043,"27":0.033651988790135236,"28":0.08862612387151896,"29":-0.010690392683084993,"30":-0.03207667585687209,"31":0.02360965865226981,"32":-0.04447961799277542,"33":-0.05902601464476629,"34":-0.04555512097405928,"35":0.011474464922332629,"36":0.0259827108492284,"37":-0.08159001460983452,"38":-0.009220225554104226,"39":-0.0364149707846417,"40":-0.09422469863494122,"41":0.044574572582472195,"42":-0.03187866642607053,"43":0.02506694387913223,"44":0.043303617569467545,"45":-0.0009973599303764922,"46":0.002752856400042267,"47":-0.026984239554411683,"48":0.00583772596856331,"49":0.11491539261726096,"50":0.05873742883649822,"51":0.03545500766918709,"52":-0.013143370178999752,"53":-0.003759958128239234,"54":-0.0031141093056502645,"55":-0.0361436193764205,"56":0.01308809917699953,"57":0.05070382574396175,"58":0.08433530168589753,"59":0.05788027332895094,"60":-0.022843352135343196,"61":0.03088950949896778,"62":-0.09824551720263314,"63":-0.010972840828840646,"64":-0.008499033318733099,"65":-0.03638894813338025,"66":0.035532704092248624,"67":0.00855446318611956,"68":-0.0417056125880218,"69":0.00007917598190467489,"70":-0.022206984437946543,"71":0.04829059526709038,"72":-0.008544455174379845,"73":-0.038280986719577664,"74":0.13421985860148536,"75":-0.01430537113183018,"76":-0.03089512029977464,"77":-0.06346061940660813,"78":0.07420388796986688,"79":-0.04967342835267261,"80":-0.036162075359556574,"81":0.004537764808672984,"82":-0.006243354161037703,"83":-0.061857870894414385,"84":0.0046546947167079265,"85":-0.039150185423424834,"86":-0.044926180368627965,"87":0.09632250208047605,"88":-0.03899144420423297,"89":0.07971642589408012,"90":0.011251744226184858,"91":-0.025427301155431577,"92":0.01755466644829137,"93":0.05160256368523328,"94":-0.06774518867555245,"95":-0.009043226795753392,"96":-0.03927544373384919,"97":0.03353544554410548,"98":-0.037542430413595965,"99":0.09780403606836541,"100":0.021501715453912953,"101":-0.023285978780345072,"102":0.02144273033920358,"103":-0.046207279080381455,"104":0.01644868759382634,"105":-0.014790783987942546,"106":0.003073087772601167,"107":-0.008543473751621308,"108":0.05401662070627865,"109":-0.03503961446273672,"110":-0.014807785708347128,"111":-0.06378399062617363,"112":0.016329764858328835,"113":-0.002830904232941594,"114":0.0156457195514385,"115":-0.010325026432623527,"116":0.03223318422384966,"117":0.005909210181531892,"118":-0.11776659852741843,"119":-0.025059015099522866,"120":-0.0015725431092850968,"121":0.040983544649939016,"122":-0.04298869775257919,"123":0.05407356690983847,"124":-0.01737879400643889,"125":0.02203002903843697,"126":0.026106210663393713,"127":-0.17036043994361105,"128":-0.003830912536530699,"129":0.011576403839428304,"130":-0.023835166581720236,"131":-0.048469428069042884,"132":0.06815593032132997,"133":0.03429881612516873,"134":-0.13594993490422996,"135":-0.06392876682692761,"136":0.11851110534112962,"137":-0.01697225261229837,"138":0.0000070485131174209334,"139":-0.028336263050770267,"140":-0.027498479506090124,"141":0.027171672020873023,"142":-0.005739766871211682,"143":-0.0025684447815443453,"144":-0.11062414082425065,"145":0.06753171218368109,"146":-0.05117783154857564,"147":-0.05168489596967369,"148":0.038582803720618536,"149":-0.003608172361521407,"150":-0.06647658118173622,"151":0.09946419018496633,"152":0.005671565514329798,"153":-0.10622944086909306,"154":0.049306926976224304,"155":0.057080338521100164,"156":0.11110241712687674,"157":-0.02076176174469836,"158":-0.03678298207371379,"159":0.009238144177133792,"160":-0.03455947471158975,"161":0.06933048786175712,"162":-0.04913967980085968,"163":-0.019468383553563944,"164":-0.0927441811907993,"165":0.10840326507286681,"166":-0.03636864596751167,"167":-0.1222507395341334,"168":-0.01841556125088382,"169":-0.0802290597161562,"170":0.03149684102102332,"171":0.014168470297244006,"172":0.005196704456872167,"173":-0.03809507622215027,"174":0.010599867556523257,"175":-0.050957699125557844,"176":-0.04823262068832022,"177":-0.055313914441912526,"178":-0.026578499379361957,"179":0.04754344068877558,"180":-0.026242212823646804,"181":0.06717578342163975,"182":-0.00406341813771927,"183":0.012072255328633257,"184":-0.09432440046774104,"185":0.02402000132244094,"186":0.05067858769157753,"187":0.0949705828885483,"188":0.06691827833967982,"189":-0.0013237881307520888,"190":-0.08833125945483794,"191":-0.0004112196523624163,"192":-0.020646641631188935,"193":-0.021312677282540566,"194":-0.045920288286844614,"195":0.04742738346795514,"196":0.026239634520090805,"197":0.006470234218436954,"198":-0.016244396692415692,"199":-0.07991637541555555,"200":-0.033447449227077,"201":0.047815269387477786,"202":0.04974406777999215,"203":-0.051915478533934085,"204":-0.08304231028631957,"205":0.08623013250196253,"206":-0.06043723333129544,"207":0.030532515562018005,"208":0.05647371899502033,"209":0.019455665705581184,"210":-0.05236746348610577,"211":0.10257052884757671,"212":-0.012784051654093763,"213":0.0907120204088396,"214":-0.10371341282425937,"215":-0.12049264141378711,"216":-0.06262256036180788,"217":0.03675372473704789,"218":0.09148857757201673,"219":-0.01937298085348449,"220":-0.06443566400516897,"221":-0.05640685851377824,"222":0.03234726891938005,"223":0.05223354288330964,"224":0.0012602911809006165,"225":0.08790128252299426,"226":-0.003921187215719958,"227":-0.01811905242422625,"228":-0.010614976333848013,"229":-0.01809189336996434,"230":-0.025031605158155237,"231":-0.046704761962514676,"232":-0.023929856016148204,"233":0.012364925194897326,"234":0.04425333722632373,"235":0.005275358852314558,"236":0.011923559513497915,"237":-0.0005937256933330142,"238":0.07643410654787448,"239":0.02024916918326003,"240":-0.0035132343868402647,"241":0.001955581745241727,"242":0.0024938791191226385,"243":0.014805356129224623,"244":0.0034841084364213145,"245":-0.054726120239060816,"246":-0.012677550557409498,"247":-0.03970458848471517,"248":0.029152393349216776,"249":-0.0290778444813629,"250":-0.0025907731998385977,"251":-0.025253661576749232,"252":0.010012522534545792,"253":-0.04460700857452331,"254":0.03302387819007096,"255":-0.0695754188847718,"256":0.14437166670488105,"257":0.06801510148803233,"258":0.03091976096697832,"259":-0.09398632510183894,"260":-0.013612806972990126,"261":-0.01926195141842016,"262":-0.003928091286491851,"263":-0.059395808671840376,"264":-0.022728363027380107,"265":0.007474332699650633,"266":-0.0064744622824783465,"267":-0.10922099617024611,"268":-0.07179451215941468,"269":-0.015881640168841363,"270":0.02431468105141691,"271":-0.009271213005451402,"272":0.033846596220327194,"273":-0.03547707085753249,"274":0.08611788854910124,"275":-0.04731493783990273,"276":0.0182972969429159,"277":0.02196832778805749,"278":-0.03946023466061665,"279":0.052448210399432156,"280":-0.02785946984615253,"281":-0.013970888438274843,"282":0.05825897458032167,"283":-0.009277975955147708,"284":-0.03506986427221611,"285":0.1034720648855217,"286":-0.012980904617924118,"287":-0.019026937153010105,"288":0.00001036739068693106,"289":-0.028410573405409083,"290":0.12142202101024287,"291":-0.08604369471690594,"292":-0.00882089683059484,"293":0.05823964504603879,"294":0.017629877202940854,"295":0.015943558024445168,"296":-0.0006307583048766414,"297":0.053065921881357996,"298":0.03837575771062023,"299":-0.088183295272949,"300":-0.0139962621747646,"301":-0.06697901750460107,"302":0.04852285654817425,"303":0.044406433416055754,"304":0.09558288015785242,"305":-0.044046615224026864,"306":0.054937433370845536,"307":-0.016611812464046277,"308":-0.0017910900637869648,"309":0.004254278595150997,"310":-0.030438426317110887,"311":0.18466198525748845,"312":-0.02617009585141008,"313":-0.01462325373373719,"314":0.008789160849324084,"315":0.00966422360409181,"316":-0.05855446229365937,"317":0.05160274814985578,"318":0.11276330662563196,"319":0.06957457656210993,"320":0.040744193376080345,"321":0.024185844195196253,"322":0.040487388493318996,"323":0.014190841842426543,"324":-0.07034327662854875,"325":0.09650303519770206,"326":-0.03233570010536432,"327":-0.007061852753050616,"328":-0.0345309111697428,"329":0.104633768460567,"330":0.07082237095295413,"331":0.057145189257414235,"332":0.003887668184147681,"333":0.03825980037441364,"334":0.02192240393545253,"335":-0.06530810339160138,"336":-0.05486863956478742,"337":0.045409040550661965,"338":-0.004482987712759739,"339":0.03422813318724208,"340":0.06328981002683588,"341":0.03106740433314768,"342":0.03177632322300987,"343":0.05814253268465021,"344":-0.04942074578560011,"345":-0.003257754720567023,"346":0.029667461710132886,"347":-0.014382108143508227,"348":-0.07767183060093764,"349":0.06949366455464907,"350":0.005683370144084587,"351":-0.041636772970108385,"352":0.0006932363936623372,"353":0.024689607293936797,"354":0.04008936122020566,"355":-0.018468525418041577,"356":-0.11150844227089127,"357":0.06298824928008237,"358":0.0007426733298527059,"359":-0.004383535451766291,"360":0.04524465488206895,"361":-0.10366238213415162,"362":-0.02717059060792661,"363":-0.03095392168821802,"364":-0.004548405495136826,"365":0.09248411427112935,"366":0.06398378434717686,"367":0.018893793743783246,"368":0.030154361574446908,"369":-0.024716631397156495,"370":0.02267347630271126,"371":-0.034798001113425764,"372":-0.031929652122147587,"373":-0.07960265176248356,"374":0.032995776084065634,"375":0.07756903057168377,"376":0.013067130692950844,"377":-0.009347619925423814,"378":0.04065584097297724,"379":0.04531284582671792,"380":0.0025488509693881818,"381":0.04740346374414715,"382":-0.008521388260364469,"383":0.053123451728649594,"384":-0.02705941246083437,"385":0.03520245971281522,"386":0.03937437842632188,"387":0.02097418991252521,"388":0.008947474993189758,"389":0.055062208789372305,"390":0.005595544521216029,"391":0.011354786029702595,"392":-0.06982028431369616,"393":-0.03398928015264703,"394":0.09235824402695349,"395":0.03886130500564313,"396":0.09433616292520418,"397":0.0018373787923899971,"398":-0.06122961408487585,"399":-0.05043868051211917,"400":-0.044783601451970044,"401":0.027556724870071558,"402":0.1065081561190405,"403":0.05847159123634877,"404":-0.07010341397306895,"405":-0.015876064614462535,"406":-0.009743296388194354,"407":0.10780925627822745,"408":-0.017570693714758317,"409":0.07304938352957198,"410":-0.008398731010647325,"411":0.007826823599730573,"412":-0.02653839822428634}},{"sx":1,"sy":1,"depth":413,"w":{"0":-0.020862218431798345,"1":0.004349359540839331,"2":-0.1288293637879272,"3":-0.08243307233643837,"4":-0.04007307446118501,"5":-0.0028218921086300593,"6":-0.0005377751114892355,"7":0.041457276648749056,"8":-0.02393642340424001,"9":0.0786279795759033,"10":0.02514387607808857,"11":-0.06392058877965898,"12":-0.06256636433445001,"13":0.03607393301480921,"14":-0.024640121000799244,"15":0.017380729070362644,"16":-0.02117060487065931,"17":0.04550880888093561,"18":0.011925749766268878,"19":-0.02231316186534335,"20":0.011290384175059365,"21":0.0005737574139233333,"22":0.0628791132590113,"23":-0.04632392938123726,"24":0.030350804524467357,"25":-0.04665226438544871,"26":0.012895161530816672,"27":-0.02689645052040632,"28":-0.07612199694118925,"29":0.02112537371585014,"30":-0.10493139573528497,"31":0.01842937244827661,"32":0.0013983883270174018,"33":0.025656170265744103,"34":-0.01048326137518035,"35":-0.12110069923761234,"36":-0.06262313592238124,"37":0.08062988366108334,"38":0.014680979210848256,"39":-0.030340113510411125,"40":-0.11169493693180535,"41":0.06816731248069985,"42":0.04344442026884845,"43":0.03493675067432423,"44":-0.08305345545310451,"45":-0.030000568199910416,"46":0.029953992874684837,"47":-0.014878710980665366,"48":0.033712607912716616,"49":0.07132056604564388,"50":-0.0725467695846555,"51":0.01977470550530001,"52":-0.040641059810005487,"53":0.06721614950067922,"54":-0.009538735656456226,"55":0.00145109638407827,"56":-0.05210381362394249,"57":-0.03436064458526446,"58":0.010785461459096299,"59":-0.0012701909261924166,"60":0.025075957669254648,"61":-0.034709465751029386,"62":-0.000005482574297326823,"63":-0.06105310943431586,"64":-0.10108650493044459,"65":0.033641403140443435,"66":0.0058151393062193055,"67":0.003221398660232771,"68":-0.0031285683038159984,"69":-0.009306385634398954,"70":-0.09206452833237737,"71":-0.012564879138818557,"72":0.02091908609440947,"73":0.0848033710227225,"74":0.030964575971902646,"75":-0.007076556015486226,"76":-0.0390010083303352,"77":-0.02786253093040687,"78":-0.13016291952272477,"79":0.016587259756957837,"80":0.013355301691480147,"81":-0.05437847883944266,"82":-0.05031890625980702,"83":0.035723171718331614,"84":0.02033398392220071,"85":-0.010828010090191156,"86":-0.035006860163378596,"87":0.09201138788793226,"88":0.024750494668015967,"89":-0.04408174742224989,"90":-0.07590988166302982,"91":-0.02199401039628357,"92":0.05534739036134831,"93":-0.07425015440173288,"94":-0.03984013156744887,"95":0.04770218703497268,"96":0.08101718306171835,"97":0.02075752274876086,"98":0.050308043096939356,"99":-0.03362737626058215,"100":-0.06619466352443522,"101":0.061776401312528886,"102":-0.03659880458059046,"103":-0.04400011184381858,"104":-0.01911419134690994,"105":-0.00421212339503298,"106":0.055582666989542985,"107":-0.039225409508969133,"108":-0.014846031447507922,"109":-0.026402663199480817,"110":0.08218661520455806,"111":-0.014676354533700618,"112":0.025450769869359523,"113":0.04671609373865726,"114":-0.08683711405904736,"115":-0.03225821878311569,"116":0.01369120325343428,"117":-0.11480063808382998,"118":0.059646714890944814,"119":0.024222208518092446,"120":-0.014941555739464183,"121":-0.08100212500683389,"122":-0.07701562494181269,"123":-0.017543066321924913,"124":-0.019888290860046183,"125":-0.04368840520590173,"126":-0.012148456068215428,"127":0.015236203510526613,"128":0.0827456017805787,"129":-0.1424327243774551,"130":-0.01411964163435463,"131":-0.008341125661792138,"132":-0.07014173333394949,"133":0.05846690981101516,"134":-0.0001599306863653598,"135":-0.02496918937170067,"136":0.044072522130149214,"137":-0.010006577679266316,"138":0.01827984408526715,"139":0.07936074584927251,"140":-0.008593229529857525,"141":-0.04478066583511333,"142":0.06488700119822975,"143":0.0037629049617297224,"144":0.03073114473338693,"145":-0.008023642625162732,"146":0.020529630520156158,"147":0.013070275894990404,"148":-0.027775562526886774,"149":-0.013740989731575831,"150":-0.053743222498071855,"151":0.03862692478983744,"152":-0.10556747779276347,"153":0.06256345040481247,"154":0.021451706014639308,"155":0.028660144096619752,"156":-0.05293752073958138,"157":0.039253705774481555,"158":0.024020718381201844,"159":0.018160035925358108,"160":-0.014744232215474834,"161":0.008930892781202859,"162":-0.07751762413751606,"163":-0.01500078148222912,"164":0.02617601621312345,"165":-0.008277996601721502,"166":0.014904227262615633,"167":0.014029874718515249,"168":-0.02600472344119124,"169":0.021126988896882408,"170":-0.03424561319098505,"171":-0.009528867748612117,"172":-0.03599015836297151,"173":-0.05268512825842236,"174":-0.06024663606681546,"175":-0.06618976027347698,"176":-0.05393945490182062,"177":-0.011538298066302867,"178":0.010190545781806174,"179":0.017880170589737704,"180":0.07307665888831016,"181":-0.06937669207454376,"182":0.010691354622599373,"183":0.00821370108267744,"184":0.0038527704812584508,"185":-0.003175969733952768,"186":-0.003784115984728049,"187":0.03988979038083689,"188":-0.0046618529470616715,"189":-0.041467574942684285,"190":-0.00224362505694972,"191":0.024496184659364387,"192":-0.03633809998646416,"193":0.010047524819022933,"194":-0.003837563749266965,"195":0.015013229999235385,"196":-0.04466877834886085,"197":0.07096147084628324,"198":-0.042244059189079634,"199":-0.060800005132089684,"200":0.09176634379804899,"201":-0.027514542667325427,"202":0.0002673184228177992,"203":-0.03697839184172521,"204":-0.0018298891595348917,"205":-0.020462933023611067,"206":0.09796942642918334,"207":0.022233290423257616,"208":0.11643882290240275,"209":0.09660345116746628,"210":0.019169632866980257,"211":-0.051675135874544906,"212":0.07734933408672955,"213":0.016478766448568927,"214":0.058480612869609996,"215":0.039414644988727585,"216":0.006953788051752627,"217":-0.0017980712598331622,"218":0.05539495765656247,"219":0.00930471354185211,"220":-0.021763125179999787,"221":-0.04476899455222625,"222":0.009636552567984749,"223":-0.021943495558957977,"224":0.010999344388617185,"225":-0.061097206178656834,"226":0.022515659859100996,"227":0.020586108733564458,"228":0.08808767078586502,"229":0.04253869504753235,"230":0.03043740493662946,"231":0.0507488966618134,"232":-0.11288627558678309,"233":-0.01859631469055177,"234":0.03927747322306421,"235":-0.007403072587201048,"236":-0.06179520075560037,"237":-0.035512890113748245,"238":-0.010800622486887793,"239":-0.05864597956452166,"240":-0.0011620707260488216,"241":-0.053531092370245274,"242":0.08512552298040203,"243":-0.10818856630220139,"244":0.012100136920425124,"245":0.029232499819735133,"246":0.13095755909500575,"247":-0.026299118986271883,"248":0.02638095696056156,"249":-0.01876179500099964,"250":-0.0936902677383188,"251":-0.029085912152865028,"252":0.018294719511172168,"253":0.05493073205082526,"254":-0.09407831966025823,"255":0.12509917458256808,"256":0.03133245459678407,"257":-0.008518341870872284,"258":-0.016593560925098207,"259":0.03711321562513514,"260":0.07479940367141812,"261":0.08596361476406063,"262":-0.037412294364628694,"263":0.07724315468026403,"264":-0.020165022566061938,"265":0.022376337234190184,"266":-0.023756627735472678,"267":0.10474729026608633,"268":0.06156003716345447,"269":-0.025114106021073376,"270":-0.06326150119645217,"271":0.00031465688108203363,"272":-0.0299864625074714,"273":0.040053044732077485,"274":0.044560075547350336,"275":-0.07026480152859473,"276":-0.08613040107902674,"277":-0.068524871922079,"278":-0.07233718463225822,"279":0.002133507433227288,"280":0.00564100886879262,"281":0.010601337209181595,"282":-0.10689038653304639,"283":0.03872846199732341,"284":0.015291020120646126,"285":0.0551834039241382,"286":-0.04576069562461158,"287":0.057980017918544825,"288":0.05815687687310215,"289":-0.0693675174446228,"290":-0.09093239292553082,"291":0.0009335841450619474,"292":0.03575159178957619,"293":-0.005445462519036851,"294":-0.021620092507837082,"295":0.03586545338491049,"296":0.04799839505330187,"297":0.036152728140031544,"298":0.002717441594746771,"299":-0.01885392621690472,"300":-0.015491258389673744,"301":-0.03446242259713904,"302":-0.0073386345391631466,"303":-0.028566391132681095,"304":0.007497347742998907,"305":0.10598292601136661,"306":-0.01526052282760749,"307":0.017120106590118648,"308":0.035123644585019306,"309":-0.049028437997835364,"310":-0.024896598871932216,"311":-0.08546818489615617,"312":0.0816067765404172,"313":0.030754090240015762,"314":0.03454910279284499,"315":0.040824136184221246,"316":0.03682161320284925,"317":0.052464263883669766,"318":-0.007093058502948906,"319":0.019008855080025915,"320":0.10083958233882868,"321":-0.00731378503237635,"322":0.058959508662275596,"323":0.03071083749517366,"324":0.07791862153518336,"325":-0.008239161849936304,"326":0.04269411997872239,"327":0.02717781804268505,"328":-0.007536031514902063,"329":0.04845144630883413,"330":-0.025262823590460764,"331":-0.037751691310665435,"332":-0.03339763150007107,"333":0.045691292806093096,"334":-0.019027386928368594,"335":0.022091556116871077,"336":0.006030704525462237,"337":-0.025744524463397773,"338":0.0041911593221489905,"339":0.04882406162113278,"340":0.07328498903604459,"341":-0.03429625913446132,"342":-0.055345273691576304,"343":0.041453867334402324,"344":-0.04342141200346148,"345":-0.03759090059684111,"346":0.03789689194030136,"347":-0.10660437625929169,"348":-0.005263612707840292,"349":-0.012710436285659469,"350":-0.013263051289771281,"351":-0.05005335327932238,"352":-0.003832346968314505,"353":0.006576584845154782,"354":-0.005511276066442723,"355":0.06086061663977056,"356":0.055977018080177625,"357":-0.0365694290835394,"358":0.04927970498592597,"359":-0.08066642582410662,"360":-0.006418693558743077,"361":0.03607288264140075,"362":0.050432213188933185,"363":-0.14245583772008047,"364":0.08448490104986835,"365":0.011891173806161134,"366":0.019972396303365086,"367":-0.056896048506126624,"368":0.0035342371106415484,"369":-0.012340288709691914,"370":0.0604327412223316,"371":0.01231350943263681,"372":0.05385081362961156,"373":-0.02721441839659856,"374":-0.05945921636010264,"375":0.015692769409502247,"376":-0.05413804280719973,"377":-0.08763977245678291,"378":-0.01437657575439053,"379":0.033325350025323774,"380":0.014771431494466958,"381":-0.11651288975412916,"382":-0.006461634312333261,"383":0.03605198975280292,"384":-0.07471002025375632,"385":0.11343665317800147,"386":0.03331041324150318,"387":-0.05229645541712458,"388":-0.0307826286902175,"389":0.03348672320468319,"390":0.08412896724459483,"391":-0.014693522731154549,"392":0.02104385415172221,"393":0.01719792123650531,"394":-0.052009732452440026,"395":0.0243515245260524,"396":-0.06092961201202621,"397":0.016878878264847914,"398":-0.04211354519121766,"399":0.05704604365989164,"400":0.01497166706714542,"401":0.0605373409579241,"402":0.08397886703438223,"403":0.0462944215529953,"404":0.050555758485106954,"405":0.05682609618456841,"406":-0.012048023725888536,"407":0.01515959092145801,"408":-0.043946413639275685,"409":-0.0022756581842541613,"410":-0.02282863823784806,"411":0.13728508265100756,"412":-0.010281600770262325}},{"sx":1,"sy":1,"depth":413,"w":{"0":-0.004354154322889697,"1":0.017251781292983357,"2":0.04371939022595277,"3":0.04050823540436078,"4":0.036859665761634575,"5":-0.06886520223068479,"6":-0.04808635144546713,"7":-0.0393004849902799,"8":-0.005655735597621612,"9":0.014510543679304195,"10":0.03975521685979108,"11":0.07418234561806727,"12":0.013383588074334027,"13":-0.03319015431740172,"14":-0.03740076828667194,"15":0.06394771112427312,"16":-0.02423839080713917,"17":0.08574693553639304,"18":0.00919831803794082,"19":-0.0502295497103059,"20":0.1217819716887067,"21":0.037645579420469984,"22":-0.03081436539838996,"23":-0.01371196007007484,"24":0.009217739799115672,"25":-0.012889704744877823,"26":0.004533489831461749,"27":0.03290150277157708,"28":-0.05732384518108332,"29":-0.03231836126129728,"30":-0.08980148433266903,"31":-0.016490580628649002,"32":-0.03945545767662313,"33":0.062327648943440415,"34":0.016608095525548094,"35":-0.007878411040985701,"36":0.06915322654338678,"37":0.015507466647502865,"38":0.041730741704808914,"39":-0.017470849486320824,"40":0.010682248264287693,"41":0.02200357313120041,"42":0.010194575170036437,"43":-0.025877436405456637,"44":-0.11438659657410691,"45":-0.004329671540877007,"46":0.01871558383290248,"47":-0.001591777938881152,"48":0.010548453816307734,"49":-0.021026179410969882,"50":0.04433855574666708,"51":0.06611629138642335,"52":0.013308586871369965,"53":0.03156288182896224,"54":-0.07101553866441461,"55":0.0061258784645441865,"56":-0.0328411923854441,"57":0.015718165516932968,"58":0.0369968450981678,"59":0.0794469938213203,"60":-0.05569227325877841,"61":-0.05287584449430521,"62":-0.03290730246151689,"63":-0.05589652500662381,"64":-0.01680609674908911,"65":-0.0664949759053483,"66":-0.025185897903679488,"67":0.03617134818628916,"68":-0.02831242115217809,"69":-0.028643278173873524,"70":-0.007607002229049459,"71":-0.02875854224814069,"72":0.02958347232633183,"73":-0.0004923556666641506,"74":-0.021337274775287986,"75":-0.011412237164829843,"76":0.025615423166897744,"77":-0.1039612361572294,"78":-0.008824687256392983,"79":0.04820615052560961,"80":0.009994361878372347,"81":0.029866108685454675,"82":-0.046956744032608404,"83":-0.011291981850001066,"84":-0.0020457352838379305,"85":-0.011561127101468465,"86":-0.046981658584662654,"87":0.02889916625821,"88":-0.06039877274412812,"89":0.008645005335812764,"90":0.07578659685981608,"91":0.11300754551364899,"92":-0.04194904044330377,"93":-0.011373198122989522,"94":-0.018247664568135893,"95":-0.03628936657304968,"96":-0.011571576827467102,"97":0.03783873927008596,"98":0.03576007758668409,"99":0.0504048594973991,"100":-0.03308877285606339,"101":-0.016850215530794004,"102":-0.07753421907088308,"103":-0.049174568912143765,"104":-0.08158040329948421,"105":-0.018423491759044498,"106":0.12326523564325972,"107":0.05976968921646255,"108":0.07187807183683691,"109":-0.03999487779766318,"110":-0.06647793784851022,"111":-0.0008179017105256072,"112":0.042814895681733335,"113":0.039649473022729205,"114":-0.06451269579961028,"115":-0.05826184269971635,"116":-0.09233146196557054,"117":-0.06989455775836068,"118":-0.04277494934135313,"119":-0.06830893992963154,"120":0.0020086481983162493,"121":-0.10158828002829073,"122":-0.03142514252217981,"123":0.06832834449155904,"124":-0.027672898784508074,"125":-0.05139868622436683,"126":-0.03579611784453974,"127":0.01916083986835214,"128":0.03768954022932857,"129":-0.11326855533379343,"130":-0.07737039319074511,"131":-0.020478577514956093,"132":0.012238228377099841,"133":-0.010196847471383321,"134":0.027716236508792545,"135":-0.06571914611415093,"136":0.049513975354133814,"137":-0.06959752217550319,"138":-0.05625898872088466,"139":-0.08670485804028875,"140":-0.06297913220902929,"141":-0.01628033581965992,"142":0.07079817441581478,"143":0.043849145113663945,"144":-0.026425155645440897,"145":-0.018139144778521334,"146":-0.06925954405883798,"147":-0.014775155889746771,"148":0.053765126619506796,"149":0.04577090214910949,"150":-0.09919060515223756,"151":-0.05791000780483749,"152":0.06737345621183345,"153":-0.029763811450218485,"154":-0.05396420677799174,"155":-0.05856106968278793,"156":0.037835964819472136,"157":-0.08381029405977923,"158":-0.006091131291475394,"159":0.0436854576983432,"160":0.058691935816045114,"161":0.017452475062318805,"162":-0.05650577109980147,"163":-0.057614993873368936,"164":-0.06775593123930733,"165":-0.05953192653776116,"166":0.020188332153503373,"167":-0.11516625452560555,"168":0.021142583367672177,"169":-0.06000811918724979,"170":0.03738907991742309,"171":-0.08588224007261121,"172":-0.02885038108776517,"173":0.016693201996513304,"174":-0.008509566030964342,"175":0.07104333964825389,"176":0.0174126977472086,"177":-0.0027711319248537735,"178":0.023041211146361644,"179":-0.01699126697333393,"180":-0.006464957653886018,"181":0.0172705317610286,"182":0.004175376416005495,"183":-0.029855686354498173,"184":0.0925571952150791,"185":0.02821669679707088,"186":0.01499325556077273,"187":-0.04077294963028842,"188":0.0028911632190100293,"189":0.06130193817852248,"190":-0.008678600773508318,"191":-0.047082979147865425,"192":0.0673647474006812,"193":0.03220522118852688,"194":0.01718039506259473,"195":0.045078931759211606,"196":0.025582077839432178,"197":-0.04339733772702409,"198":0.0294171136352739,"199":0.03928382263994401,"200":0.05352677096120858,"201":-0.08760284895751014,"202":0.06689738514053392,"203":-0.06728719378618461,"204":-0.03555093611814923,"205":0.00020434189814700748,"206":-0.03964707173897026,"207":0.011348952149782638,"208":-0.03964329738460047,"209":-0.038208621905028835,"210":-0.03888639573716526,"211":0.10714353727407036,"212":-0.005099860318154277,"213":-0.05044896897345325,"214":-0.07568829773845107,"215":-0.023287978605137608,"216":0.018614314160024698,"217":-0.019516123950564315,"218":-0.07162538411305669,"219":-0.01912106125454138,"220":-0.055365602615018286,"221":-0.03378445544162117,"222":-0.030653669915613548,"223":-0.03168781194074077,"224":-0.036695162422441335,"225":-0.04371130158895143,"226":0.04273937737797618,"227":0.02255385807321282,"228":0.039631065077354706,"229":-0.05899261303665787,"230":-0.010886451063604185,"231":0.04727137849990831,"232":-0.026670967537635464,"233":-0.07535412236925113,"234":0.014400860714249293,"235":-0.02020284472064392,"236":-0.04360293821940009,"237":-0.07722979146395756,"238":-0.019851741426227934,"239":0.06417629356179601,"240":0.009201336372430874,"241":-0.15608337088418284,"242":-0.06678618547096547,"243":0.027395340867900242,"244":0.05750201376225328,"245":-0.03368255925868883,"246":-0.028912766659459667,"247":0.011237462570066166,"248":-0.07355112391773223,"249":-0.04698608829664254,"250":-0.09787308692892496,"251":0.027664551495770833,"252":-0.03903768837697917,"253":-0.09005693850232063,"254":-0.003883405819572427,"255":0.1410046861810887,"256":0.008953993280270224,"257":-0.0059217401647256775,"258":-0.03745480863671165,"259":0.057411398185942486,"260":-0.016681966534472986,"261":0.024268134503968444,"262":-0.00273048397754774,"263":-0.11285282309010315,"264":-0.029376153572740874,"265":-0.04190725879282035,"266":0.03607620101111132,"267":-0.0779403691239761,"268":-0.003523717675833433,"269":0.014271273687366911,"270":-0.04844234122139306,"271":0.014359079409207016,"272":-0.01135853691840494,"273":-0.003886132168171709,"274":0.13532265461656945,"275":-0.007791028354989648,"276":-0.05873702735782322,"277":-0.018547917608212908,"278":0.028071263815754012,"279":0.04617545730338652,"280":0.11317667468554896,"281":-0.0005206227758556309,"282":-0.0020227963971489763,"283":-0.013067784521742011,"284":-0.012878388796095059,"285":-0.08569300782140855,"286":0.027082733436181637,"287":0.03978004678914903,"288":0.018035143861613662,"289":0.012360898912820467,"290":0.06706713424564566,"291":-0.014224796054500178,"292":-0.027615047509434054,"293":0.04311066813190797,"294":-0.03869130369825936,"295":0.07571359296452765,"296":0.07409611785529992,"297":0.04139987294697891,"298":0.025430278288287696,"299":-0.02052192021505446,"300":0.013168064549734257,"301":0.046953229309179556,"302":0.04625637496009974,"303":0.029750223294611074,"304":0.00821415761605039,"305":0.06480853901601856,"306":-0.009834627663053666,"307":-0.018514312489459974,"308":-0.03596240484177339,"309":0.03871654315653453,"310":0.04749768297045425,"311":0.003974782563904076,"312":-0.0017742462431190697,"313":-0.03321581633117159,"314":-0.02822000683819626,"315":-0.061142807687430044,"316":-0.03318125333087375,"317":0.03850210624515138,"318":0.07911081418702692,"319":-0.05805416060078914,"320":-0.010228768785020935,"321":-0.08757465896714144,"322":0.013699545783892514,"323":0.031186543172218945,"324":-0.09884741911048883,"325":0.024883884200139657,"326":0.04818360592116824,"327":-0.009940739761244724,"328":-0.07324264196773791,"329":0.018953459771482977,"330":-0.0615795949435987,"331":0.02115693869124427,"332":0.18600016584367934,"333":-0.09285818077568371,"334":-0.033976704440032764,"335":0.01692224421666943,"336":0.027261085805132895,"337":-0.013937463938355134,"338":-0.021062679462314236,"339":0.04829159586976035,"340":-0.10368002167506014,"341":-0.0038630352542936594,"342":-0.006034358402003696,"343":-0.01740453310570558,"344":0.07147534612519191,"345":-0.0030969264331602766,"346":0.09165253708681922,"347":-0.02310222153231762,"348":-0.05787925753704735,"349":-0.013529831091862544,"350":0.07603117555388686,"351":0.0561740667436948,"352":0.005860123240081652,"353":-0.02027595244364718,"354":-0.08289239591374942,"355":-0.00007286183981716861,"356":0.039217572926751716,"357":-0.06986568205306685,"358":-0.07971957035652495,"359":-0.02265383953980345,"360":0.01001442853782336,"361":-0.04155773768847567,"362":-0.04981939755062545,"363":-0.10336473399506763,"364":0.021388330213754848,"365":-0.06106997028069013,"366":0.05054877131187497,"367":-0.03407895367635288,"368":-0.056791693581039776,"369":-0.03224393561594188,"370":0.04831772551888438,"371":0.009129313684222002,"372":-0.008804546916366738,"373":0.049374415960356244,"374":0.0626659004779812,"375":-0.030885254676166766,"376":0.014479014377421795,"377":-0.040161974832284716,"378":0.019395174697246588,"379":0.03228952548728011,"380":0.029000796500918722,"381":0.031560571944514525,"382":-0.033897888394313895,"383":-0.02272823707527988,"384":0.13545073587632178,"385":-0.037990144290263754,"386":0.003900534029485063,"387":0.006158051492545081,"388":-0.016535400500082228,"389":0.032471182017060715,"390":-0.025138016974710225,"391":0.028881373636752018,"392":0.02959116582188417,"393":-0.00851171934536169,"394":-0.07248374844059478,"395":0.03221397868451318,"396":0.011249435674421259,"397":0.030103706402048742,"398":0.06601054012876352,"399":0.007744567285433277,"400":0.016530752573171117,"401":0.020026068862920573,"402":0.01744281319354353,"403":0.030861555480689633,"404":-0.06815389140954749,"405":0.00306290342916753,"406":-0.10991315105890198,"407":-0.042460993535038245,"408":0.06692546695543186,"409":-0.06186554848188488,"410":0.02496874776993514,"411":0.025587396781198864,"412":0.08046342703597217}},{"sx":1,"sy":1,"depth":413,"w":{"0":0.0690593779535454,"1":-0.025323170839406755,"2":-0.05685952482214629,"3":0.020929495667282742,"4":0.06471015296869341,"5":-0.005632376356355632,"6":-0.041518798665113835,"7":-0.04615458218232807,"8":-0.11003431622256285,"9":0.04760364226720081,"10":-0.08223499524121965,"11":0.06329135536211444,"12":0.02771592514823934,"13":-0.011399484972843418,"14":-0.013497856042747407,"15":0.02681674426229149,"16":-0.0008172096794065861,"17":-0.06633047290252278,"18":0.08581164968296934,"19":0.038611679865566,"20":-0.0491190306872133,"21":-0.05082906393793053,"22":-0.03280961363903065,"23":-0.03970999470961855,"24":-0.11591710220534582,"25":0.06682372719014507,"26":-0.029524731512790465,"27":-0.06984529904825265,"28":-0.023987102614613533,"29":0.0009359945146465756,"30":-0.06913194567711668,"31":0.024685696537523765,"32":0.059795020068605445,"33":-0.029243143085027748,"34":0.017092193397010437,"35":-0.03257910359232409,"36":-0.02433232717343373,"37":-0.03663503484654077,"38":-0.01640658921268224,"39":-0.003930559910281074,"40":-0.05145440606060679,"41":-0.09821795995070959,"42":-0.0031975190812204334,"43":-0.04546957101111619,"44":0.0009268657096854129,"45":0.05188826624840654,"46":-0.03465771321798335,"47":-0.06237909560062385,"48":-0.08552517953491896,"49":0.055164793275674924,"50":-0.05147219303385063,"51":0.009610290653571659,"52":-0.058084516803497854,"53":-0.017712107242531038,"54":-0.043148348012412886,"55":0.04728284056170383,"56":-0.08559313192187401,"57":0.04432499390143502,"58":0.04713774777266746,"59":-0.010412119290794124,"60":-0.07391006778303703,"61":0.06270842128469477,"62":-0.06140633880979217,"63":-0.047750516724557525,"64":0.049336547270100534,"65":0.05996730352428307,"66":-0.03206505176269645,"67":-0.07224570733718814,"68":-0.03535170683124814,"69":-0.0007702939368786409,"70":0.027802714356237445,"71":0.003412842858156333,"72":0.01656405116107871,"73":0.005350539040668705,"74":0.07071501122176371,"75":0.029837449231404262,"76":0.026404764324221407,"77":-0.022517920039089295,"78":0.05157740915780257,"79":-0.023482831356973426,"80":-0.01030337214540036,"81":-0.032713796734486184,"82":-0.0031778793975044115,"83":0.08537059005572491,"84":-0.02598152928821364,"85":-0.028466308381703075,"86":-0.017771736800920528,"87":-0.03882860254214479,"88":-0.02987689743862395,"89":-0.028230071411044385,"90":-0.0254893975326886,"91":0.048771638675070526,"92":-0.09807546087248252,"93":0.0022234001556134452,"94":0.10374612456368477,"95":0.0032842081286114915,"96":-0.003455383117484256,"97":0.035743944627216744,"98":-0.01197992844173903,"99":0.08078355513963542,"100":-0.008502184478659932,"101":0.00824842022861589,"102":-0.006895729336600235,"103":-0.051800363139749964,"104":0.0228596311916351,"105":0.05070691193225721,"106":0.0039847278185647875,"107":-0.03813744638299185,"108":-0.07975818532526875,"109":0.1394580989253477,"110":0.013067763996345343,"111":0.08823844845564552,"112":0.003696449551125834,"113":-0.02814601375251157,"114":-0.07147343876931139,"115":0.004529560668571481,"116":0.01879612339821415,"117":0.01336943108623741,"118":0.07749671839054116,"119":0.04705738723617241,"120":-0.04363567366056011,"121":0.004306225152307744,"122":0.07609864522895443,"123":-0.02534457673120749,"124":-0.036635484970889955,"125":0.008124259247752496,"126":-0.05889370141881389,"127":-0.05092689340896862,"128":-0.043043328688866914,"129":-0.04372952095502999,"130":0.06237698143669293,"131":0.011415701481720178,"132":0.03693167366556259,"133":-0.007770784971077996,"134":0.007387259369060211,"135":-0.02663239181568447,"136":-0.0038675715442359,"137":0.06269922133814763,"138":-0.010168698699604866,"139":-0.05754958430078978,"140":-0.013398929399068102,"141":0.030340279055846228,"142":0.024469545636906603,"143":-0.01884213639143015,"144":0.05447808732670649,"145":-0.11572792417483531,"146":0.034150469683708815,"147":-0.05706558193704699,"148":-0.016213473952624544,"149":-0.032701097832438505,"150":0.0456561574410784,"151":-0.007043746223738194,"152":-0.004241605391180074,"153":-0.03074398613575833,"154":0.09934065325526241,"155":0.0769127080814596,"156":0.035313251251715354,"157":-0.14106905805183756,"158":0.07797258109760857,"159":-0.05634980681177664,"160":-0.021068877082681313,"161":0.04216978068878509,"162":0.006433790264259607,"163":0.0689937218146577,"164":0.05821190368074502,"165":-0.020394049410358828,"166":0.021176566828646746,"167":0.047796660548130435,"168":-0.02074421845690662,"169":-0.09253392511834128,"170":0.036645302318991206,"171":0.04061257963706004,"172":0.06040852633681689,"173":-0.06351086829245184,"174":-0.03238120533752456,"175":0.014247402598304992,"176":0.10327766461777661,"177":-0.018573108899612032,"178":-0.029276931791132367,"179":-0.04146151693217741,"180":-0.04039916647477644,"181":0.03450918624662641,"182":0.06705707088947296,"183":0.05647535033430931,"184":-0.03596552226509786,"185":-0.10818571261875103,"186":0.023602180424504706,"187":-0.05319202488662017,"188":-0.1019786143471032,"189":-0.027735895749992846,"190":0.020593818061116976,"191":0.015245615597849297,"192":0.03895966165357334,"193":0.011869201197877065,"194":0.09301222882746922,"195":0.011958322514967538,"196":0.025741620631255777,"197":0.05359981534724223,"198":-0.044936716302628944,"199":0.028860085512498235,"200":-0.0003568899120215128,"201":-0.031891224139784395,"202":-0.03597633457688558,"203":-0.026371366719621286,"204":-0.04769487719382399,"205":0.017266707436290336,"206":0.005524635246372282,"207":-0.07029908110963096,"208":0.014344022305190053,"209":-0.010636745698850274,"210":-0.01583283826591228,"211":0.07574619536566576,"212":0.03604636817390556,"213":-0.06701640384429165,"214":0.02616530163037493,"215":-0.09240796005290941,"216":-0.018415081788085718,"217":0.009187046104648251,"218":-0.02309696009360318,"219":0.018183503411452227,"220":-0.038591039621148654,"221":0.010211366483929146,"222":0.024413068110007655,"223":-0.01150120876804377,"224":0.06762916142846283,"225":0.006203610587952229,"226":-0.015256265958774514,"227":0.06098643482141052,"228":-0.04731386586923554,"229":-0.03944597188638888,"230":-0.07917293796643976,"231":0.0050442560322781355,"232":0.007359089995997444,"233":-0.07551520925486302,"234":-0.045620039958844054,"235":0.0787242699904135,"236":0.03471597351275002,"237":0.0070179662687185375,"238":-0.03850768586401155,"239":-0.04847409628246918,"240":-0.004097497345606851,"241":-0.033479972295114686,"242":-0.009351326723961599,"243":-0.03630077597657845,"244":0.05307244405907104,"245":-0.018560312752824385,"246":0.008741469145110667,"247":0.006851765502352139,"248":0.037693375673674166,"249":0.007640246316435386,"250":-0.10096484742206058,"251":-0.01259765178410599,"252":0.028234709430008664,"253":0.0378324392941691,"254":-0.05337393565222025,"255":0.06439845130495024,"256":-0.016395325450788104,"257":0.0235686544293719,"258":0.07621954548233824,"259":0.04442184251905241,"260":0.07032179180024307,"261":0.03321887315269908,"262":-0.014276311247877848,"263":-0.060164326899974974,"264":0.022824742778975064,"265":-0.047725814193333965,"266":0.11838901376841221,"267":-0.035390545256104765,"268":0.06224108137747874,"269":0.0353260025103149,"270":-0.07339648150388171,"271":0.011680609455181864,"272":-0.0016092029362114505,"273":-0.03521774517100012,"274":-0.02298198508727175,"275":0.00023712994229652866,"276":-0.002038626784096389,"277":-0.019902607131922302,"278":0.026907059789332954,"279":-0.007644637651470182,"280":-0.04016244108046013,"281":-0.020947627368483823,"282":0.03424346880922622,"283":0.06484802797985106,"284":0.005366889109972822,"285":0.0875903532142076,"286":-0.00870102942758181,"287":-0.07203053364385076,"288":0.06952926220727466,"289":0.020372005395498168,"290":0.004848667627050771,"291":-0.05180481335990455,"292":0.06058133834624995,"293":0.000993754991856713,"294":0.025038192157690868,"295":-0.010158562189706576,"296":-0.036257816628259394,"297":0.007642039765290405,"298":-0.01748147027641722,"299":-0.00895782101999999,"300":-0.029383346930867138,"301":0.037464987579079054,"302":0.09280624364465333,"303":-0.011701855310508512,"304":0.007413298882040697,"305":-0.003675744830839045,"306":0.011731986356692585,"307":-0.06817013556904433,"308":0.007740471738523241,"309":0.011911576953375504,"310":-0.016090249333958175,"311":-0.052300262600414975,"312":0.027510800969340846,"313":-0.08573715757331947,"314":0.016648283960060257,"315":-0.040971592562200135,"316":0.03854573983860569,"317":0.006520466034708021,"318":-0.0368347679358613,"319":0.016501065749066256,"320":0.006319267236979193,"321":-0.025105028630300077,"322":-0.08240316924235674,"323":-0.03834956756785197,"324":-0.04768051104374594,"325":-0.008734839755828123,"326":-0.0086843502617193,"327":-0.03996300091362992,"328":-0.04000791937657758,"329":0.020737818882624943,"330":-0.007116398265937751,"331":-0.11228027197172974,"332":-0.05050381442751371,"333":-0.00469746266762946,"334":-0.09914511995961293,"335":-0.07123667846644229,"336":-0.06975267255997986,"337":0.02801451213396796,"338":-0.004653277194658591,"339":0.031158919042917517,"340":0.0034067968256331882,"341":0.030952284203907558,"342":0.08799640074327189,"343":0.0013537215148421886,"344":-0.06204089396121726,"345":-0.05910271172284739,"346":0.03888789684987183,"347":0.04408101768528992,"348":0.024730678234518137,"349":0.04384698123349984,"350":-0.02363373512160147,"351":-0.05530236926575424,"352":-0.04049169006352375,"353":-0.06921493971238818,"354":-0.05391141212755914,"355":-0.033153818096536676,"356":0.009092420166663982,"357":-0.01983096649481686,"358":-0.016718885108306165,"359":-0.003318373149642303,"360":0.04512486532384267,"361":-0.01478242548564716,"362":-0.06811205141436172,"363":-0.023470569620015678,"364":0.013983962723512258,"365":0.060843918666644924,"366":0.030569578857936756,"367":-0.033656638667533566,"368":0.05048236856217387,"369":-0.0446624109341605,"370":0.01707399493191618,"371":0.01122178236219779,"372":-0.016311137210315036,"373":-0.017846998136103874,"374":-0.0017101002740510668,"375":-0.045343922222020154,"376":-0.006745180147961597,"377":-0.06463953535977075,"378":0.07274299207811517,"379":-0.006532484728399322,"380":0.0006644822961881335,"381":-0.05445213759248171,"382":0.03888968843781803,"383":0.05860698111039016,"384":0.0989212108274115,"385":-0.025684990371072414,"386":0.016282302492974104,"387":-0.06405881462113518,"388":0.015555920353004769,"389":-0.0301713228857832,"390":-0.013197511730366521,"391":0.07505252773292491,"392":0.004064746635583412,"393":-0.028916324212409427,"394":-0.05148071341846928,"395":0.02336522344427757,"396":0.06508055101324665,"397":0.008318359730551936,"398":0.007876523150738977,"399":-0.05214226689502105,"400":-0.019767379317058728,"401":-0.03580188104567124,"402":-0.008338544852667848,"403":0.02646353876476352,"404":0.003960791340865179,"405":-0.04021936354794537,"406":-0.06749095137903142,"407":0.0002777455968103873,"408":-0.06233334454060283,"409":0.11062888847477938,"410":0.07822686294595792,"411":0.027129423835370193,"412":0.03057228745467796}},{"sx":1,"sy":1,"depth":413,"w":{"0":0.014284091583615429,"1":0.00971347567213676,"2":0.02083531096770839,"3":-0.04605864616315649,"4":0.07691925431075959,"5":0.005569342115496821,"6":0.08491103205474605,"7":-0.004785336959729953,"8":-0.1311469232791125,"9":-0.017607050179519915,"10":-0.09265390964623463,"11":0.09828169202642426,"12":-0.045530329895739664,"13":-0.012205006472816108,"14":-0.003650530572734708,"15":-0.004985725864363155,"16":-0.01664293955853593,"17":0.07094578203194621,"18":-0.03633920639024906,"19":-0.009254909176471248,"20":0.009654592379919391,"21":-0.03010107552011787,"22":-0.018067218973996144,"23":-0.11243885086586455,"24":-0.11346378351685373,"25":0.05957218596808089,"26":0.05754999848473313,"27":0.013986945948340587,"28":0.02349749302956342,"29":0.022756053790565427,"30":-0.04881111933033226,"31":-0.028037766371775227,"32":-0.06477897440446719,"33":-0.005593969580379295,"34":-0.04615136828981779,"35":-0.020651061247074165,"36":-0.007595073505602317,"37":-0.09665437486117302,"38":-0.010010310830422914,"39":-0.013273481960631404,"40":0.07240110532013141,"41":0.012862290969993832,"42":0.04231700735530364,"43":0.04559615084625627,"44":-0.08258049269297728,"45":-0.020460792998256025,"46":0.07199026114621028,"47":0.047812389943442814,"48":-0.030560404607610208,"49":0.021739310478903404,"50":-0.03803673429909629,"51":0.00988477443218343,"52":0.00034071155981977045,"53":0.030229972101379052,"54":0.011482655114771655,"55":-0.06012606844610843,"56":-0.0025988522900514503,"57":-0.012791377029566087,"58":-0.028035436099802736,"59":-0.009690314609811896,"60":0.097399433788369,"61":-0.011046581990752912,"62":0.061904232636858084,"63":-0.08002696378658605,"64":-0.0071931677864814185,"65":-0.04364499962090102,"66":0.04019305674453741,"67":0.05801099381303326,"68":0.0704620620057684,"69":0.027062858463412366,"70":0.0023693987319262054,"71":-0.036444038416162554,"72":0.08121778362340272,"73":-0.07034920368415477,"74":-0.0027327774928442693,"75":0.04215434707091235,"76":0.07618946599755068,"77":-0.01660193787475769,"78":0.01343401122222824,"79":-0.08204402036010307,"80":-0.00599164246431752,"81":0.04450923144465146,"82":-0.08156971530306402,"83":0.11465272025153435,"84":0.044250702704272206,"85":-0.005384358131763081,"86":-0.09321700136406505,"87":0.09418532843808175,"88":-0.06340721885556068,"89":0.009360805586964725,"90":-0.05041416256461597,"91":-0.09571465605055034,"92":-0.01627088984122129,"93":0.02836349791691642,"94":-0.052293304279479334,"95":0.07373571640822373,"96":0.02051111787775672,"97":-0.007020112889683424,"98":-0.004320140868735591,"99":0.08753936574153573,"100":-0.026924004269787485,"101":-0.028809624372628642,"102":0.00600956078414009,"103":0.017053506797384058,"104":-0.05074979078682812,"105":-0.03537746154465071,"106":-0.06408059148066489,"107":-0.056465187798392005,"108":-0.0638272714385735,"109":0.022886781405764195,"110":0.04318194054588802,"111":-0.02298419085138032,"112":0.06713683031428638,"113":-0.07454088212435533,"114":0.06600768326604116,"115":0.04313480391506938,"116":-0.018604028935160864,"117":-0.09979384065130757,"118":0.02218973469914791,"119":-0.02364845624797649,"120":-0.010119047596992687,"121":-0.0022090953806059234,"122":-0.027561350880957177,"123":-0.01613086619721501,"124":0.0908906069231265,"125":0.012851488488003885,"126":0.07337794321125046,"127":-0.0034023856330546247,"128":0.0013320677349334834,"129":-0.08626921605601678,"130":-0.029142965250303188,"131":-0.05606847913743142,"132":-0.02198915983766351,"133":0.0438529691890321,"134":0.008747469887128184,"135":0.025443208057473722,"136":-0.01331714996196217,"137":-0.01292375914650588,"138":-0.03408056741393345,"139":0.004643627474234834,"140":0.058879174285594464,"141":-0.008314757824403038,"142":-0.011683005661980836,"143":0.05580413300798823,"144":0.07145369183147901,"145":0.05850768288839128,"146":0.05273602569432236,"147":0.013030724036875743,"148":0.05230485132776904,"149":-0.048872916283820136,"150":-0.07964547591176939,"151":0.07017445324159928,"152":0.01626448522978689,"153":0.09024508169602502,"154":-0.031158776238102804,"155":-0.08236774820672496,"156":0.06757414454914051,"157":-0.02497721097808734,"158":0.0299699581816466,"159":-0.0389126268381563,"160":0.04759240066099552,"161":-0.05854239318358036,"162":0.09420017071498042,"163":0.01772168594358999,"164":-0.03899203735005334,"165":-0.026345893081057517,"166":0.05275094300185224,"167":0.08537474936857421,"168":-0.03632250097327522,"169":-0.12589027967895253,"170":0.15180413915860264,"171":-0.04065582186729669,"172":0.03050362197479232,"173":0.02613500679982788,"174":-0.012400487988434655,"175":-0.023732615820097096,"176":0.04382949906699772,"177":-0.07909246330181725,"178":-0.06263866961599635,"179":0.08302154421208843,"180":0.024442985503650188,"181":0.020489955106593852,"182":0.0584034687986682,"183":-0.003957380675071211,"184":-0.002412289472899896,"185":-0.1062665076918615,"186":0.010664115996714744,"187":0.07346253163658194,"188":0.0011259103881514276,"189":-0.005108697707317048,"190":0.04158193168778852,"191":0.007529989387689867,"192":0.0006319928910700038,"193":0.027007944092082042,"194":-0.0098776033044907,"195":-0.10088589685061625,"196":-0.08209600360414658,"197":0.006057659311312001,"198":0.0008519744044704992,"199":0.009937604338132861,"200":-0.0835423821337184,"201":0.03951046774680701,"202":-0.035598192366021415,"203":0.0028365127678237918,"204":0.04402749869264362,"205":0.10908626109751793,"206":-0.08253829729250449,"207":0.022932684510815243,"208":-0.05617590327427597,"209":-0.026899108225117933,"210":0.012260600992572156,"211":0.010220157814436913,"212":0.023258321352788755,"213":0.011634289059729071,"214":0.04922362305782368,"215":0.038607850109584604,"216":-0.06740884800504285,"217":0.016287513380675397,"218":-0.015171036582936259,"219":0.09487591096505867,"220":0.06040111991728171,"221":0.030651159141944554,"222":-0.012039173036868722,"223":0.0007510675047297551,"224":0.003494239340087815,"225":-0.004809662373919395,"226":-0.04808559913368401,"227":0.005449934479972629,"228":-0.06116153823743681,"229":0.004310324016892598,"230":-0.079546161349706,"231":0.011880624720614682,"232":-0.0031401394831157693,"233":0.06640632196547717,"234":-0.06971364490674332,"235":-0.016058043406146583,"236":0.025696704903124524,"237":0.002033096831684691,"238":-0.07093079278513517,"239":-0.03637628808567455,"240":-0.05281603343606809,"241":-0.031083818384970596,"242":-0.07431086616395517,"243":0.02392623744223977,"244":-0.01872205953356728,"245":-0.047376495131608264,"246":0.01655237083740343,"247":0.023078064915789943,"248":-0.04932808338287987,"249":-0.058245761017167455,"250":0.0023677544672519387,"251":-0.034125632065458225,"252":0.009644597313150146,"253":-0.09545057743298789,"254":-0.041063447482729866,"255":-0.06987550442168448,"256":-0.022579045463190842,"257":-0.008694577333781494,"258":-0.02802345138394718,"259":0.03288063906234493,"260":-0.013200278928026042,"261":0.020653553760504966,"262":-0.07826310805509529,"263":-0.07404377416769506,"264":-0.11228873194314727,"265":0.03511917805776518,"266":0.041740063988296515,"267":0.003008077074530535,"268":-0.022146386571983024,"269":-0.027794462332278076,"270":0.08123682727695287,"271":-0.00022093736734736814,"272":-0.021649560242622705,"273":0.12940588381301188,"274":0.008745073184230514,"275":-0.018829287217404074,"276":-0.013838517578751246,"277":-0.010748803236459669,"278":-0.012201399055746688,"279":-0.023845334730642476,"280":0.03281595863648304,"281":-0.11957112635579277,"282":-0.10067302857828588,"283":-0.04586796164599609,"284":0.01824357064243633,"285":-0.049614725716490594,"286":-0.012687214946774258,"287":-0.10552197560220802,"288":-0.012343436820379186,"289":-0.07152484006914596,"290":-0.01571260579484245,"291":0.04865784673811739,"292":0.056180193377361264,"293":-0.02591455928738376,"294":0.04956365584626978,"295":-0.05251486966395191,"296":-0.02350657734784013,"297":0.06709441657314856,"298":-0.014149557372367966,"299":0.04688401340776967,"300":-0.017456729139733736,"301":-0.03889522990099716,"302":0.03744939263703585,"303":0.0370551462171796,"304":-0.005153238294551612,"305":0.01902490503529305,"306":-0.002418469606956082,"307":-0.06858541038697717,"308":-0.041779650189812896,"309":-0.04508252404716609,"310":0.030924510376461743,"311":0.03774848488464282,"312":0.0021806952408696414,"313":0.0597056172937282,"314":-0.038361645153647296,"315":-0.017087361506885872,"316":-0.13475524043553544,"317":0.022405484291596313,"318":0.008153347580716896,"319":0.051768601021216616,"320":-0.017467789814599535,"321":0.12101007318640719,"322":-0.026299404435484102,"323":0.02903738183649877,"324":0.04743129275359474,"325":0.023889923426212694,"326":0.02715741717733769,"327":0.08135863270051355,"328":0.007098149334492356,"329":-0.013509917883497766,"330":-0.12228453833959817,"331":-0.08196569761550451,"332":-0.06407778174886657,"333":0.07403682142285997,"334":-0.016479135658083562,"335":0.02099230384167024,"336":-0.010856566450439835,"337":-0.07209730550552496,"338":0.010093843126795175,"339":0.035421556541027646,"340":-0.036984445364940936,"341":0.02028506954819603,"342":-0.023857464905186664,"343":0.05475269022627404,"344":0.04580524585327647,"345":-0.07871862265183058,"346":-0.04448886647015392,"347":0.045790882543628786,"348":-0.09644635259265001,"349":-0.03519041396552567,"350":0.04433040057981813,"351":-0.11423813456908007,"352":0.030095362988501347,"353":0.005628031471654186,"354":0.0510320626828215,"355":-0.055019758794621905,"356":-0.07695817083105544,"357":-0.058206238682781096,"358":-0.03270021602859852,"359":0.011572684395016604,"360":-0.038066408693798126,"361":-0.07791218620890426,"362":-0.07629571558608525,"363":-0.057810573156271854,"364":-0.038853936520318225,"365":0.017283631695708578,"366":-0.1252171832773743,"367":0.02221011595127558,"368":0.05203058435215391,"369":-0.056217114438399794,"370":-0.10392192589703657,"371":-0.01971910963531517,"372":-0.024158702369047113,"373":0.047056402888775974,"374":-0.007445120412131633,"375":0.06714718830115167,"376":-0.12356017466120534,"377":0.013590026600680321,"378":-0.08312898187173433,"379":0.01729835955677133,"380":0.0051823183063998335,"381":-0.03861444741531304,"382":-0.03230101803265233,"383":0.011384720251018122,"384":-0.10425187966605144,"385":-0.037650778188988876,"386":-0.10180808268638647,"387":-0.08351878161313486,"388":-0.037258730294363385,"389":0.013718972497281752,"390":-0.006799422011867748,"391":0.07418884623233686,"392":-0.11595101398037777,"393":0.1502670387734317,"394":0.020137009613881922,"395":-0.005885525302205388,"396":0.04921626394983321,"397":0.05133434868230694,"398":-0.01891838937392299,"399":-0.03573076243375239,"400":-0.009250474553115146,"401":0.05148741783218356,"402":0.003592851261779736,"403":0.08430189703533593,"404":-0.027311874432527198,"405":0.0416276280763865,"406":0.007152544916323553,"407":0.021919392211521175,"408":0.010708217406327098,"409":-0.10134087945145495,"410":0.03977441738812273,"411":0.004917594026948575,"412":-0.1133707094864362}},{"sx":1,"sy":1,"depth":413,"w":{"0":0.03181794740960429,"1":0.018418948385904417,"2":0.03306385229396112,"3":0.00583291638180739,"4":0.031212931380010626,"5":0.020857611979364775,"6":-0.07068178273061414,"7":0.02638302092177745,"8":0.06123923595921886,"9":-0.0366003064083352,"10":-0.035320828638219746,"11":-0.1143589849053392,"12":-0.02438191465923074,"13":0.033967038886810984,"14":0.0223572976004581,"15":-0.0164928114599122,"16":-0.037870302534707044,"17":0.09789062334962996,"18":0.026776342393578744,"19":-0.06270775434097713,"20":-0.0808299258920999,"21":-0.03519450406550739,"22":0.017909013564856368,"23":-0.10233201121628296,"24":0.016752187913283294,"25":0.026808115668440022,"26":-0.02500200835576347,"27":0.02794735006814481,"28":-0.07865087752363749,"29":-0.08781241155877856,"30":-0.098126490742305,"31":-0.0299166085415744,"32":-0.023632473191384368,"33":0.03696265155740155,"34":0.044677368844030466,"35":-0.11354728353546857,"36":0.055170918515085765,"37":-0.08872911112831124,"38":-0.028452644226275928,"39":0.01873532254172215,"40":-0.03511819934386969,"41":0.051729675515159605,"42":-0.02420747245069251,"43":0.0050660510329977055,"44":0.06362501098694306,"45":0.0049078339404565845,"46":-0.018954116812962565,"47":-0.019849177036779936,"48":0.04902171186320666,"49":0.0039004591565546345,"50":0.0294910063917986,"51":0.032952880532520115,"52":0.05593080728937635,"53":0.0529625561201492,"54":-0.05872892101913635,"55":-0.003333489240056635,"56":-0.017264314970238136,"57":0.0011280980542001339,"58":0.05944042597242377,"59":0.012045861476029079,"60":-0.054783991707290036,"61":-0.06783706848527188,"62":-0.08408977516759589,"63":-0.04002000012804718,"64":-0.1326596050288472,"65":-0.07265395282472115,"66":-0.05406129179075244,"67":-0.06320609762683882,"68":-0.054221936576340085,"69":0.02990102269911773,"70":-0.030103288434371454,"71":-0.038648695346136554,"72":0.003281167637934325,"73":-0.03704164500582238,"74":-0.06584421379673291,"75":-0.0004105906842765711,"76":-0.026879025941605007,"77":-0.09545406559390521,"78":0.013232618166546023,"79":-0.11555958344903808,"80":0.038376425307629664,"81":-0.017209647518772846,"82":0.041923016413563795,"83":-0.02187191939072788,"84":-0.058502451699102585,"85":0.025961386348515046,"86":-0.04756323523400123,"87":-0.03940149991189589,"88":-0.09395282799877598,"89":-0.011357153791098555,"90":-0.017733115803662422,"91":-0.014899052719817788,"92":-0.056649400170654014,"93":-0.04811607252899487,"94":-0.012661615058535018,"95":-0.02013203065380558,"96":-0.08645710733835334,"97":-0.0023917291262533897,"98":-0.033458535822187864,"99":-0.04206598510691588,"100":0.09753496356894023,"101":-0.06355149787723313,"102":-0.04510681380827344,"103":0.037560625180766756,"104":0.000830799674053711,"105":0.014549792842789198,"106":-0.0721148092384144,"107":0.026895069482918893,"108":-0.032118569790694745,"109":-0.016612719633751008,"110":0.034680416311169956,"111":-0.14771446671849936,"112":-0.009741629157214493,"113":-0.039161046151188005,"114":-0.04123213809716795,"115":-0.018889778797870654,"116":-0.06517268904786991,"117":-0.09168486482523358,"118":0.0527876907433568,"119":-0.08321148723639708,"120":0.010015953620384217,"121":-0.06857159157954947,"122":-0.0003965912613198101,"123":-0.011674287777775624,"124":0.037428508424508185,"125":-0.052449777126989276,"126":-0.05673132306187289,"127":-0.06367141432632697,"128":-0.04741660552947183,"129":0.049730252591154475,"130":-0.045807681072416125,"131":-0.0002585262256008496,"132":-0.02092022267445421,"133":-0.01870308029922538,"134":0.03517103720162284,"135":-0.03136950108106336,"136":-0.047844033516490206,"137":0.014745256268683716,"138":0.010994327776485242,"139":-0.0035083823239749853,"140":-0.01668663091803235,"141":0.0373132066416092,"142":-0.02770735147877232,"143":-0.04575030087551069,"144":-0.09703296412455815,"145":-0.020142744411418317,"146":-0.024016244926569157,"147":0.06376363732137598,"148":-0.01720949677647706,"149":-0.023077672734975095,"150":-0.065190315813168,"151":0.04340425580808833,"152":0.0033753237290643713,"153":-0.08281538147316986,"154":-0.06694067144860731,"155":-0.012200718809001915,"156":-0.004988336084370931,"157":0.022949876878590746,"158":-0.038875972448149686,"159":-0.04594612923650379,"160":0.026084403400882764,"161":-0.03860221034200187,"162":-0.04701857948581176,"163":0.04673629883950216,"164":-0.09609089988376392,"165":-0.12099798992498763,"166":0.022332239042013362,"167":0.008325620077455402,"168":-0.030274298711393085,"169":0.052186020195925636,"170":-0.0012985253689965206,"171":-0.002898434007254461,"172":-0.057227724199839354,"173":0.012940892591725374,"174":0.03039242364801057,"175":0.05026072193232303,"176":-0.05163542954508617,"177":-0.04082966378721115,"178":-0.037006441516344545,"179":0.005389054377999216,"180":-0.058509769512956875,"181":-0.03092387603393132,"182":-0.029624338732136296,"183":-0.0837344901410563,"184":0.0362870526555002,"185":-0.07132407398899088,"186":-0.00017643379809024554,"187":-0.006421257688214838,"188":-0.049844504575413125,"189":-0.06808540525272622,"190":0.06230212602087424,"191":0.02362329339635228,"192":0.06023309453599565,"193":-0.087552028169039,"194":-0.035690781115389154,"195":0.01671376628317313,"196":0.024540871340914257,"197":0.0015921486259009342,"198":0.04699432185609782,"199":0.056205343003708,"200":-0.086635156875651,"201":0.023504246212139694,"202":0.00535564643685845,"203":0.0108549146407178,"204":-0.08730930326589235,"205":0.025250544507756996,"206":-0.03199044074982606,"207":0.11558474382252339,"208":-0.011188389384794066,"209":-0.03508954995093223,"210":0.04332540958561922,"211":0.0034031489154725675,"212":0.03329437663292309,"213":-0.06058509038974102,"214":0.011425096611946075,"215":-0.01612192895438545,"216":-0.019118404324673377,"217":0.020379661471048815,"218":-0.00617798623486673,"219":0.022963397539127944,"220":0.0940251877375084,"221":-0.03578096251478652,"222":-0.028394377817046294,"223":0.03919153056045164,"224":-0.07991558483623089,"225":0.026785005806267307,"226":0.08574295249624528,"227":0.02217616571377341,"228":-0.07693849670005787,"229":-0.003280359664790583,"230":-0.04348664546563243,"231":-0.04325542612973469,"232":0.02618745759640007,"233":-0.011828734657854329,"234":0.06717571382451606,"235":-0.02442796934082359,"236":0.032150664705016006,"237":-0.07394217516982893,"238":-0.04712981291579162,"239":-0.07893817698371046,"240":-0.03441971025335581,"241":-0.01458936696335843,"242":0.023173160470731438,"243":-0.07984593136213274,"244":-0.0676970696449032,"245":-0.05433211086092674,"246":0.027896867176867596,"247":0.04191575496000914,"248":-0.013578333318435262,"249":0.0005016267280366601,"250":-0.05766927635783206,"251":-0.07227063803392204,"252":0.023990390502583243,"253":-0.05381412845128767,"254":-0.10209646355337565,"255":-0.01917711955663013,"256":-0.02628379214068904,"257":0.021573136132734906,"258":-0.042209346241665974,"259":-0.0984300445829269,"260":0.012417422643585143,"261":-0.013458860666586569,"262":-0.021553002686470157,"263":0.058596084346017555,"264":-0.05124609110006169,"265":0.008221305539628465,"266":0.029590428756722482,"267":-0.0705790984228231,"268":-0.026450826197924347,"269":-0.0013963063823114357,"270":-0.050346912900245046,"271":0.03201529724404783,"272":0.0445087110661076,"273":-0.08231998092739146,"274":0.046613825545274976,"275":-0.028911206952389447,"276":0.05488568897886042,"277":0.06200064488782748,"278":0.03553672243136135,"279":0.05800120193736414,"280":-0.03673823885714228,"281":-0.005243816729849712,"282":-0.007116157847197303,"283":-0.002785188054782255,"284":-0.04235082433140805,"285":-0.03769323433643011,"286":-0.036564584867274444,"287":-0.01354477666863522,"288":0.05736927984046798,"289":-0.03646787631254058,"290":-0.06096243844130073,"291":0.009607585394540256,"292":-0.02030141070088973,"293":-0.057632712875185774,"294":0.13402454054196258,"295":0.005028611637835646,"296":-0.02980066456310628,"297":0.03842814357139652,"298":-0.0332869603172548,"299":-0.04272103562585638,"300":0.011592954537516497,"301":-0.04424704667056718,"302":0.03498506218764588,"303":-0.04463999908304908,"304":0.10836534176677876,"305":-0.003991708292596848,"306":-0.039896122754145814,"307":-0.0007721241408786317,"308":-0.04792502944987408,"309":-0.009603957785967619,"310":-0.003233109872939589,"311":0.1712153522991457,"312":0.011214446582106269,"313":-0.03150663356441971,"314":0.033073674129824086,"315":0.04894464905733525,"316":0.025623025297117897,"317":0.0755352231105878,"318":0.21809879476387892,"319":0.01906743494986564,"320":0.035739445969857384,"321":-0.012389566686072185,"322":0.032157526935166464,"323":-0.08227860796494829,"324":0.035198731629631205,"325":0.21983123465274906,"326":0.009650045241395896,"327":-0.017146527229180846,"328":-0.07934340227150924,"329":-0.01348329005439974,"330":0.09340742073736456,"331":-0.039806788044599764,"332":0.10665139835325745,"333":0.0206628226326861,"334":0.033520260802771505,"335":-0.032793533659176574,"336":-0.041186144152256875,"337":0.008524325975555943,"338":0.07890077618651198,"339":0.06747573946539111,"340":0.005287686371517209,"341":0.03251941294959963,"342":-0.044737459335093155,"343":-0.056537617586845924,"344":0.030279390774286097,"345":0.0036565103595562216,"346":0.051669540940384895,"347":-0.08291108713103049,"348":0.08488499839639596,"349":-0.02689944865117161,"350":-0.07381686404892962,"351":0.06234295268395069,"352":-0.049999714439257555,"353":-0.026548643954180197,"354":0.04780996492135211,"355":0.025690529434911145,"356":0.08357305185343245,"357":-0.011868844461655566,"358":-0.09653121391723604,"359":-0.10077617952762752,"360":0.024207078916858915,"361":0.029210789811421903,"362":-0.055539739520919125,"363":0.04819462496177714,"364":0.03498390804716223,"365":0.003618598045441202,"366":-0.07489888041295582,"367":-0.007457050892836579,"368":-0.03431756893936279,"369":-0.01750656908295162,"370":-0.04769117172366848,"371":-0.016747572432215592,"372":0.03193136071473442,"373":-0.09102950614705019,"374":0.019526739777984803,"375":0.02286527105037313,"376":-0.01440408857968642,"377":0.04435441188548477,"378":-0.009328329150804103,"379":0.07879476632722877,"380":-0.025913422520743322,"381":0.04550572573335434,"382":-0.07431248096381078,"383":0.02749018096467641,"384":0.02763883326473619,"385":0.019019418523307463,"386":0.043523531952713065,"387":0.028998979179731307,"388":0.02612171729526931,"389":0.003747769897369148,"390":0.025935520123793018,"391":-0.05564503040063871,"392":0.00639349811911578,"393":0.016137926169567204,"394":0.021250258284266788,"395":0.04012092545521297,"396":-0.03655362305390532,"397":0.08227047271711317,"398":0.04165389121465906,"399":-0.06335656094360179,"400":-0.05309026994455725,"401":0.07544645380646119,"402":-0.021105210605090977,"403":0.024606262654929625,"404":0.00874667704475395,"405":-0.01030806252167569,"406":0.006857277005224674,"407":-0.015081955059121287,"408":0.056950188622245476,"409":0.014558571616146997,"410":0.03307960789334034,"411":-0.14923973779135208,"412":-0.014877433935656784}},{"sx":1,"sy":1,"depth":413,"w":{"0":-0.01601290315049511,"1":0.003109779908039951,"2":0.11144681297738254,"3":-0.01267885794849096,"4":-0.01582410793209841,"5":0.04614547783386407,"6":-0.020721251138106737,"7":-0.02391593295027613,"8":0.03474041460969559,"9":-0.014694623879457587,"10":0.0737105694993776,"11":-0.035660087816102914,"12":0.04526715087545496,"13":-0.03805772163717404,"14":-0.038713256769771165,"15":0.019473274078249576,"16":-0.05044248578258347,"17":-0.007496295553118417,"18":0.010182614368708145,"19":0.032433545388853714,"20":-0.04445014395402926,"21":-0.043455273378305515,"22":0.02180651553604326,"23":-0.014046577668773734,"24":-0.010376030092028993,"25":-0.06349601925432338,"26":-0.05155072853265735,"27":0.08040650684337985,"28":0.0008503846456780487,"29":-0.022959118075179342,"30":0.06867594339175555,"31":0.02855274893331999,"32":0.01436907211430799,"33":0.02837912600075987,"34":-0.013724306959597154,"35":0.028537353213922423,"36":-0.025474179721499568,"37":0.0440033537004313,"38":0.022697939431077903,"39":0.027652060526150962,"40":-0.002587914518793696,"41":0.006982767691710947,"42":0.0013230587131742183,"43":-0.04213539198703076,"44":-0.10161237716392664,"45":-0.07319564931943395,"46":0.02816494350822989,"47":-0.04101252968412398,"48":0.006595085166853066,"49":0.0015288729337988678,"50":-0.009675395824573524,"51":-0.06133664970583558,"52":-0.021474064566104206,"53":-0.09462454917641966,"54":0.01784748910594017,"55":-0.021956734963871478,"56":0.005902505993036643,"57":0.03175410552309646,"58":-0.06540938498742918,"59":0.08225015085358861,"60":-0.10612202706705524,"61":0.13477392292987414,"62":-0.03283633772062925,"63":-0.03789207730394415,"64":-0.03383720744998008,"65":-0.07817862387018949,"66":-0.03322859850316389,"67":0.032228273015769776,"68":0.013151557976688847,"69":0.024286391704447245,"70":-0.018409086739005615,"71":0.028133345861550814,"72":0.13381877224577732,"73":0.06819221667064648,"74":-0.04141433038888811,"75":0.040955269436322425,"76":-0.022492599262858366,"77":0.03374587503142502,"78":-0.0476753783910657,"79":-0.015516204804549754,"80":-0.07741716503746746,"81":-0.08180133636754695,"82":-0.0006557776950726912,"83":-0.05231012823857575,"84":-0.01916692345210243,"85":-0.01687708652871961,"86":0.05937396065845826,"87":0.07672317785123627,"88":-0.029538223995239452,"89":0.07219367853434018,"90":-0.01768398677241917,"91":0.09799099088436401,"92":0.04728413136498364,"93":-0.0398864227126217,"94":0.03286511064053986,"95":0.04011585200519518,"96":0.042289738362195906,"97":-0.006821025864423224,"98":0.01141174044882545,"99":-0.03529923622070098,"100":0.029562896155688363,"101":0.05070016161734614,"102":-0.11613477693670017,"103":-0.0008188428205214609,"104":0.13300781519784674,"105":0.051221434290965026,"106":-0.07642239690643272,"107":-0.05321945245475186,"108":0.0074521296909417,"109":-0.02106886853460979,"110":-0.023587835202751387,"111":-0.09236493086546745,"112":0.006687083231554177,"113":-0.063439410402894,"114":-0.032101190239472194,"115":-0.03398071255562953,"116":0.054269670695373744,"117":-0.01571572990196529,"118":0.05011922850682455,"119":-0.02589080406094286,"120":0.08148264997148798,"121":0.03821015872774363,"122":0.09042566587187774,"123":0.07363428477227053,"124":-0.04677449710430964,"125":-0.03293819271357185,"126":-0.01786492127438079,"127":-0.056301127188690916,"128":-0.07569676019356403,"129":0.0020908265089968096,"130":0.02782389392890777,"131":-0.03953324673544944,"132":-0.07026756123636939,"133":-0.00025254893607518406,"134":-0.013464962676950668,"135":-0.02350501923739692,"136":0.004756190729706611,"137":0.032535668998189826,"138":-0.04181679023851496,"139":-0.10965705601605506,"140":0.006826346862474662,"141":-0.026940004378313606,"142":0.04008323082240544,"143":-0.02632948307910213,"144":-0.033384242034854905,"145":0.025516300495994636,"146":0.08140096970087282,"147":-0.011994609698123422,"148":-0.12543224391729857,"149":0.043368075672861016,"150":0.0169072594994249,"151":0.0096717284972932,"152":0.03972139466328916,"153":-0.025856502261227272,"154":0.049602363084038446,"155":0.05754427275343308,"156":-0.03147662834141005,"157":-0.07274567214931507,"158":0.03443712408238711,"159":-0.02325574515279602,"160":0.04874035179088869,"161":0.016895042394943948,"162":0.04921585878028917,"163":-0.018975969282331025,"164":-0.04467458459218681,"165":-0.04374841703930102,"166":-0.016751523881575955,"167":0.11954798778104793,"168":0.06310576611368875,"169":-0.003689876284287479,"170":-0.004742133735152801,"171":-0.03513791793777177,"172":0.029208421954902926,"173":-0.05886045371999141,"174":-0.007184281864438244,"175":-0.05334572862788193,"176":0.045336943160912815,"177":-0.06567142133280963,"178":-0.014551308262645044,"179":0.03393685982819455,"180":0.07155764860355637,"181":0.06863629302226645,"182":-0.05644372115235876,"183":0.024714902508088325,"184":0.05230672079792263,"185":-0.021890346384439104,"186":0.06167541563128982,"187":-0.02619473764013857,"188":-0.07225561218541439,"189":0.03778681438413862,"190":-0.0396016269723269,"191":0.05083434366654106,"192":0.026987290268247862,"193":-0.12721140277013857,"194":0.026865381327225327,"195":-0.07659557205538571,"196":0.12462418569432711,"197":-0.07210593966132443,"198":-0.001226687131503736,"199":0.0995867978932494,"200":-0.04167359220033165,"201":-0.010747668425845137,"202":0.08375252971623545,"203":-0.00005067318625176514,"204":-0.027192903863512304,"205":-0.0669473102232723,"206":0.04498500387085232,"207":0.03249741643639432,"208":0.04027145874010432,"209":0.04251288321972693,"210":0.005790763619566803,"211":-0.0139965760791414,"212":-0.009137200164064626,"213":0.07347140378698205,"214":0.06423011858118313,"215":-0.0029594882855443426,"216":0.034476963960139176,"217":0.0388576112092621,"218":0.0176485974020289,"219":0.06753397545662429,"220":0.07585456881756081,"221":0.0694750928093216,"222":0.027889062308782006,"223":-0.06909868630123604,"224":-0.044154786768129735,"225":0.05744023745541209,"226":0.05577535760184445,"227":-0.010814723045866202,"228":-0.02514100115774784,"229":0.08865141391664308,"230":0.024747465678094674,"231":-0.16086210221439684,"232":-0.021560625495547034,"233":0.027485004955585028,"234":-0.0691971017455325,"235":0.05744493742227441,"236":-0.017479265240348228,"237":0.022865910026018833,"238":-0.05128403175079982,"239":0.11002623134766071,"240":-0.13622887953645288,"241":0.025357334401136515,"242":-0.03223223976674628,"243":0.0459086279871606,"244":-0.027339255481849716,"245":0.033377420689090616,"246":-0.07181871962180185,"247":0.039357085074562884,"248":-0.09665640435360692,"249":-0.010799094765862131,"250":-0.018103882350701043,"251":0.04964935987202159,"252":-0.03676347207404358,"253":-0.005370603743011589,"254":-0.05704242144476963,"255":-0.04711364159054123,"256":-0.007852728017074694,"257":0.12622270754410955,"258":0.004603239164104492,"259":0.014032258634871049,"260":-0.010422043135908854,"261":0.15201341694276704,"262":0.026859927440219363,"263":-0.001594979558557835,"264":-0.03962016156944078,"265":-0.056463308732067445,"266":0.027200932518466697,"267":0.027410041352363926,"268":0.0035077667623815262,"269":-0.040757802246198974,"270":0.0745623652234996,"271":0.055629677111505973,"272":0.02772000834305786,"273":0.055528030851475625,"274":0.04501824558435458,"275":-0.0059972564552522615,"276":0.05838037546971894,"277":-0.04261483231281058,"278":0.08092685650940644,"279":-0.014112171675839577,"280":0.01883306820194045,"281":-0.02519391300018034,"282":-0.054704512857431414,"283":0.07603636887804936,"284":0.06121476828246611,"285":-0.021274077741566894,"286":0.03215505717865022,"287":-0.01475251006392849,"288":-0.013099427102261252,"289":-0.02764674546450391,"290":0.038147279260231176,"291":-0.08696446803946656,"292":0.05407352920258488,"293":-0.015400094458329577,"294":-0.031421238090797256,"295":0.01170320493559863,"296":0.009796584549207699,"297":-0.030065562085131076,"298":0.051970519995830196,"299":-0.05151437052035005,"300":-0.07066621204508391,"301":-0.0045225761330187466,"302":-0.020655096680933134,"303":-0.10838891715876918,"304":-0.004352387008443883,"305":-0.009578416265813117,"306":0.10094234559081552,"307":-0.030508979193931866,"308":0.09404680462902737,"309":0.0196357518109513,"310":0.06658937764693768,"311":-0.012658848953888396,"312":0.01729680211932696,"313":-0.010726829264490145,"314":-0.04183983308222401,"315":0.10760000344238724,"316":0.0067336892645802615,"317":-0.012450914080328598,"318":0.04123963223910437,"319":-0.046273347906230486,"320":0.01769685031625361,"321":-0.035133919234262886,"322":0.06833537194871597,"323":-0.020138256660202608,"324":0.007225702520534864,"325":0.014811281778644828,"326":-0.04488542967509107,"327":0.028362031951234948,"328":-0.06084657897150858,"329":0.07011373054652341,"330":0.02661162218171209,"331":-0.017405459068910018,"332":-0.07133780055567834,"333":-0.0032632428355383117,"334":-0.059133501110402345,"335":0.01572600812744181,"336":-0.003278953709347575,"337":-0.011966246704892785,"338":-0.06955762057044534,"339":-0.018698853293759976,"340":-0.10604381538368593,"341":0.043271100573664394,"342":-0.09482594388414434,"343":0.024741327727614806,"344":-0.05104446044086581,"345":0.05002032432853032,"346":0.040323058690998816,"347":0.04768633876323203,"348":0.04909370056851485,"349":-0.011833129021995391,"350":-0.032628099703595585,"351":0.0732977745875731,"352":-0.04784452872018526,"353":0.13250061994558074,"354":0.0812256332415941,"355":0.027367992137910784,"356":-0.012195682213864117,"357":0.05205695033837256,"358":0.039010203138956104,"359":-0.05214768494532583,"360":0.040853094404470165,"361":0.006661474370740055,"362":0.0997171346256085,"363":0.05857909161741786,"364":0.012385850541446758,"365":0.044287577556622756,"366":0.08075210674215672,"367":-0.034566531796795315,"368":0.051332287997771994,"369":-0.02865045565484787,"370":-0.061334020069025434,"371":-0.050067254349109004,"372":0.1716794972440119,"373":0.03110804576910411,"374":-0.015056982313668291,"375":-0.03305167511169619,"376":-0.03647228282653991,"377":-0.012329035616818213,"378":-0.11428033490669465,"379":0.08145192015460011,"380":0.009843206008737459,"381":-0.01090095647726084,"382":-0.04277397434969493,"383":-0.05528715952241084,"384":0.05246923481315105,"385":-0.06018041233917659,"386":-0.036423958230439084,"387":-0.06150357733684163,"388":0.00718104167640171,"389":-0.02917327093999872,"390":0.0523470877683279,"391":-0.04008832389538391,"392":0.025620602699866782,"393":-0.006923463299912255,"394":0.029808960587104253,"395":-0.013355993473065698,"396":0.0016835419720306658,"397":-0.04349041083113476,"398":0.02598967374403321,"399":0.026166984654463443,"400":0.0624302458316034,"401":0.01676261900909941,"402":-0.005271818846213015,"403":-0.1031473779242144,"404":-0.07232589944088756,"405":0.00022809748318474042,"406":0.014458267860057963,"407":0.0569710367246888,"408":-0.015513666449918351,"409":0.13015801790250114,"410":0.05466953567100636,"411":-0.05956275040588868,"412":-0.030503914185139886}},{"sx":1,"sy":1,"depth":413,"w":{"0":-0.07237717023218036,"1":0.008701223469211487,"2":-0.07816084354628725,"3":0.02881431850895884,"4":-0.0347652242905681,"5":0.09146072915911031,"6":-0.023150418877147916,"7":-0.05404705779461053,"8":0.03028020133051407,"9":0.02822704968879327,"10":-0.0028311039149082552,"11":-0.06245192805678005,"12":0.05442366953130203,"13":-0.03738613972395642,"14":-0.08121923170925001,"15":-0.1021168710090954,"16":0.044562439606659295,"17":0.062173011137918864,"18":-0.0015465151905715206,"19":-0.036462533437792974,"20":-0.06203264055815524,"21":-0.05344287258854107,"22":0.05211878880073424,"23":0.017455588312645102,"24":0.001001482334762185,"25":-0.024458417182471517,"26":0.08091129526981078,"27":-0.0584240939684738,"28":0.025424646770988865,"29":0.062490040503563764,"30":-0.09028316443509661,"31":-0.020437751987321187,"32":0.04296913296914878,"33":0.026096446996412212,"34":-0.006269530584422379,"35":0.017826345936838524,"36":-0.04474900451123238,"37":-0.053271943449367934,"38":-0.006397370101282112,"39":-0.07157939085794246,"40":0.06472539160492226,"41":0.027865066340030706,"42":-0.0026870209014218244,"43":0.06728313878722213,"44":0.05997324265269325,"45":-0.05957964484063923,"46":0.01064933819578241,"47":0.04291302998854635,"48":0.005531807358156409,"49":-0.03281060246394969,"50":0.08875220280862472,"51":-0.051109585664553224,"52":0.04580317691764878,"53":0.05422695821412022,"54":0.04524976975334546,"55":-0.10935672200249548,"56":-0.00990759216529269,"57":-0.011461873151405988,"58":-0.029319125692353107,"59":0.04091527489210858,"60":-0.04219720377385118,"61":0.050826189484594025,"62":0.03008526392951789,"63":-0.03326393537781889,"64":0.08021785222516375,"65":0.031884919407889296,"66":-0.04919761251965384,"67":0.010897815457823036,"68":-0.05654477084339791,"69":-0.019036661216583893,"70":-0.028030197211795838,"71":-0.005741768487689412,"72":0.061181729932581266,"73":-0.011865170822183049,"74":-0.05551618223388383,"75":0.0226663570929371,"76":0.02605015931439179,"77":-0.006600554073536331,"78":-0.047099169486404524,"79":-0.011173668181254575,"80":-0.03152124315455292,"81":-0.03194221748875798,"82":-0.0778574543053939,"83":0.027557782188982045,"84":0.08086670566064962,"85":-0.029562569361162656,"86":0.011617127797834404,"87":0.04729692329689395,"88":-0.03219232328263537,"89":0.0010046378860597155,"90":-0.03817095528605344,"91":-0.018418258474506403,"92":-0.05450653845341388,"93":0.04335331706653233,"94":0.01327731475549914,"95":-0.06726353131643752,"96":-0.12317074762643809,"97":-0.03347718224712406,"98":0.01639466093860906,"99":-0.0016498143205153242,"100":-0.11433962003270179,"101":-0.060079805257806186,"102":0.00001568009900601578,"103":-0.05481703251829644,"104":-0.008028583470745795,"105":0.027402519228639646,"106":-0.016307326090696968,"107":0.01618044715603578,"108":0.012127017920431088,"109":0.07055705666725196,"110":-0.04563638021213566,"111":0.07762765109657122,"112":-0.09350528258529837,"113":-0.002952238205029407,"114":0.029503830530320112,"115":0.02274287120369395,"116":0.005116043385105825,"117":-0.062089557768405385,"118":0.03639384218927614,"119":0.013384553490220339,"120":-0.09401527040678115,"121":-0.024580614042449902,"122":-0.10570162957621358,"123":0.042577670874246215,"124":-0.017332379147852135,"125":-0.006756383766413522,"126":0.04767466478263009,"127":-0.077791874602515,"128":-0.0711655761979806,"129":-0.03107049874983596,"130":0.03508822545534241,"131":-0.05464359979551637,"132":-0.024592545409211613,"133":-0.042398524232289334,"134":0.045909037916815824,"135":0.0001901637942860646,"136":0.008325221882659056,"137":0.03265204976106156,"138":0.05072569765873049,"139":-0.030464592213515253,"140":-0.047482052193683594,"141":0.05577671290567521,"142":-0.003727698379168916,"143":-0.0011009266952140035,"144":-0.050316310012015454,"145":0.0254559852564578,"146":-0.031412477189267055,"147":0.0110662659581792,"148":0.021300140859536038,"149":0.03462068194664412,"150":-0.0012791429733027713,"151":0.024245899943805577,"152":0.07365092360596957,"153":-0.0827008703210671,"154":0.011039281437409518,"155":0.028120391958881392,"156":0.025115515038101378,"157":0.10973429896602836,"158":0.029589904596913155,"159":-0.05149045968974451,"160":-0.04033732164606503,"161":0.006128323991716974,"162":-0.03817663402046287,"163":0.006550937508691045,"164":-0.0002947249152538516,"165":0.011334006226943076,"166":0.034958063850442866,"167":0.004788259175748472,"168":0.020592713135791113,"169":0.1058865657536971,"170":0.033885872761900485,"171":-0.08203122555834609,"172":0.04774788387612017,"173":0.03393883251932622,"174":-0.011298537556328033,"175":0.048300753588151855,"176":-0.004655456356486475,"177":-0.039478771612298444,"178":0.13302342173934192,"179":0.058619568382760064,"180":-0.0021901499535291586,"181":0.03326916662733234,"182":-0.014161571554895369,"183":-0.03264491866072196,"184":0.00020084682440898305,"185":0.09946617972353022,"186":0.01930238300115764,"187":0.005551642977311013,"188":-0.06066298499434594,"189":-0.027032692367150828,"190":-0.009330600826724033,"191":0.00305151503156014,"192":0.00906899814623117,"193":0.009440477312083806,"194":0.0769995402560245,"195":-0.0038216082348861966,"196":0.08378082279249549,"197":-0.013484432059455874,"198":0.014466773719379685,"199":0.03319967815919125,"200":0.05704440386505192,"201":0.07061262242404841,"202":0.06321589075192768,"203":0.08287713979848045,"204":-0.022782050661049203,"205":-0.018697858068225586,"206":-0.04451142653416384,"207":0.13591891966630146,"208":0.025188941115323164,"209":-0.024409541649435845,"210":-0.03922205308123515,"211":0.10998888311315598,"212":-0.06421526252361932,"213":-0.026446953947340503,"214":-0.01944697956227938,"215":0.03186380480947476,"216":-0.008439574464922708,"217":-0.07524551110768378,"218":-0.030895081509773995,"219":-0.08019418785362716,"220":0.0486105314066867,"221":0.03388135082486918,"222":0.04864945599436983,"223":-0.1213926649387575,"224":0.05438344227530096,"225":-0.017670333802292743,"226":0.025733979751706892,"227":0.057177846717745305,"228":0.07563423439910753,"229":0.0436541495760644,"230":0.0194351694334534,"231":0.003915243704575744,"232":0.02408034405361805,"233":0.015336632061270564,"234":0.03306981738811891,"235":-0.0056829467463514055,"236":0.031365263836488515,"237":0.011839838276743482,"238":0.018231949513086484,"239":-0.15251135554684428,"240":0.10451033780988105,"241":0.0019411548044081521,"242":-0.01042591598152746,"243":-0.0033425483063408454,"244":-0.07814343936078369,"245":-0.021486562195464524,"246":0.009606313966949602,"247":0.10655889419681258,"248":-0.003906266975326202,"249":0.07014349527076957,"250":0.017799189049723434,"251":0.021628053715415107,"252":-0.08054680925685806,"253":0.031070782953376865,"254":0.07584419454088247,"255":0.13130999412311145,"256":0.06762093067055243,"257":-0.0889875235968083,"258":0.019273958974449952,"259":-0.07208823041245609,"260":0.07928044713734941,"261":-0.019369365846018474,"262":0.03868523464168035,"263":0.013585822558115926,"264":-0.042102699724199215,"265":-0.040120639297220755,"266":-0.015079957956575832,"267":-0.0027570942385250195,"268":0.004813999116397432,"269":0.021515183879730775,"270":0.0637477268475476,"271":0.06275040718757799,"272":-0.037980433591714324,"273":0.04660811354166986,"274":0.03236825705035485,"275":-0.09615819450221004,"276":-0.010796210394620096,"277":0.06926332509069312,"278":-0.003929728743157246,"279":0.05116920047913608,"280":0.02451776822594754,"281":0.053482252444322254,"282":-0.0012044938432991185,"283":0.012045283988992178,"284":-0.005175555455954635,"285":-0.019967618803244935,"286":-0.060757437116789104,"287":0.037216585538274866,"288":0.025927997947852086,"289":0.024417760221992286,"290":0.02663553702291263,"291":0.03201878853210452,"292":0.0010513785248574675,"293":0.006590237520318241,"294":0.022949107481007758,"295":0.0766482858355975,"296":-0.04684258138435271,"297":-0.0381787366479343,"298":-0.05579752554100158,"299":0.004795627451258235,"300":0.04884202256595687,"301":0.03406609761694039,"302":0.0026176589464170625,"303":-0.017488646112264795,"304":0.03492230324400273,"305":-0.012016697333347731,"306":0.061729335342608174,"307":0.017976595010584098,"308":0.0024616131882986983,"309":-0.0995742395764849,"310":0.03212933882071864,"311":0.0374993261466688,"312":0.0035280853920706635,"313":-0.0031264953695116344,"314":0.05541372606504295,"315":-0.018925734764068378,"316":0.04201848147539443,"317":-0.07711204507311462,"318":-0.0010445261039063593,"319":0.02812667894054654,"320":0.04456080029874942,"321":-0.0641335321722084,"322":0.002769278355472715,"323":-0.06120143098416468,"324":-0.04035954879683175,"325":-0.07327489688549102,"326":-0.019872459521657622,"327":-0.026196373689057004,"328":-0.02146163313199247,"329":0.012692599157976674,"330":-0.011202197191737335,"331":-0.08768500717109953,"332":-0.027437703723512,"333":0.009169009245091392,"334":-0.011774777624070915,"335":-0.0215932614653865,"336":-0.03064302907004058,"337":0.004486726009694037,"338":0.08624205502196138,"339":0.021442848510730854,"340":-0.026114517141866453,"341":-0.03376819047521401,"342":0.02028490716112642,"343":-0.02577572248931407,"344":-0.00126031857112764,"345":0.013667331438445831,"346":-0.005326426223139543,"347":0.07166081657106252,"348":-0.01804251157972275,"349":-0.05028213094779567,"350":0.020996158437405998,"351":0.013804943414956423,"352":0.026197683826549027,"353":-0.14269298225093163,"354":-0.023412664384746016,"355":-0.007603999763679756,"356":-0.024341147334472544,"357":-0.0425583305713092,"358":-0.03994505791170612,"359":-0.00013932194452097226,"360":-0.02776076213558296,"361":0.0054170172742044505,"362":0.0933157442858765,"363":0.05106239221554355,"364":0.03461214448880929,"365":-0.028164681517674317,"366":0.01391195669201203,"367":-0.033622881694250845,"368":-0.05521161530413474,"369":-0.024429187513182234,"370":-0.057829203358199195,"371":0.01916679352117228,"372":-0.01271497748164638,"373":-0.018766556764735497,"374":0.09308353625572849,"375":0.04467787747972547,"376":-0.06745754545418281,"377":-0.05913869039026921,"378":0.03751085461677171,"379":-0.022633873021246132,"380":-0.055927054653471094,"381":-0.015019945816287237,"382":-0.06607216366076694,"383":0.07540967680284912,"384":-0.07617481396985878,"385":0.02166939654773482,"386":-0.0492002717779564,"387":-0.08839560146695186,"388":-0.08407080381473737,"389":-0.09018347265715158,"390":0.02066001021051696,"391":0.09546925895332126,"392":-0.04468028345612025,"393":0.05940083155762642,"394":-0.03702800495433428,"395":0.032266682788583155,"396":-0.06844228791279282,"397":0.061635829946555316,"398":-0.0566475339700483,"399":-0.003155002781807917,"400":0.006165942927641319,"401":-0.015081565235491888,"402":0.04875086410271786,"403":-0.1112144323164424,"404":0.04010706164620442,"405":0.043208156591097675,"406":0.12329358358726501,"407":0.0836238453976224,"408":0.0040157404840006385,"409":0.021543376674287244,"410":-0.010905845367538069,"411":0.0976460125965006,"412":0.012914795494773822}},{"sx":1,"sy":1,"depth":413,"w":{"0":-0.06506583979289365,"1":-0.04617554665609628,"2":-0.05464459023332999,"3":0.04937151794979386,"4":0.06695016471309356,"5":-0.0449870354898397,"6":-0.0543835661510067,"7":-0.06994520474197638,"8":0.00691182881569694,"9":-0.04152669465721855,"10":0.036066107423619986,"11":0.036298775348505584,"12":-0.02680281388620047,"13":0.04672068549548819,"14":-0.00454881763418035,"15":0.08857012836745524,"16":0.017275517779337474,"17":0.015282994348722575,"18":-0.07281920228635022,"19":0.0137930003599825,"20":0.11778661775996253,"21":-0.04268805306613075,"22":-0.03348328596163377,"23":0.019308314600138845,"24":0.018295429389516112,"25":-0.059651515801444635,"26":0.1300876419334088,"27":-0.016937975256158085,"28":-0.071101402698793,"29":-0.054869068651940266,"30":-0.02965178255109459,"31":0.036066297820199496,"32":0.020733947513584417,"33":0.014684035757451884,"34":0.0382721218356339,"35":-0.04128475122309669,"36":-0.0466598618903482,"37":0.07054014771950412,"38":-0.11258519776854603,"39":-0.02260980618516331,"40":-0.05966808451962366,"41":-0.05464442273516849,"42":0.032187237213777545,"43":0.013877791829388728,"44":0.023431026656146447,"45":-0.007297625060283066,"46":-0.02213727273532333,"47":0.02717701846687064,"48":-0.031769016148929,"49":-0.044859441033127674,"50":-0.0504575405544275,"51":-0.06512921372193979,"52":-0.0648378430853932,"53":-0.10345507511852811,"54":-0.03533797149192137,"55":-0.05541331640241692,"56":0.05637419674606459,"57":-0.05960217473022224,"58":-0.0152971082744664,"59":0.06259161218540826,"60":0.07466021788364138,"61":-0.030952076104974215,"62":-0.0421920911131395,"63":-0.0637532749327911,"64":0.02125452012024128,"65":-0.0033519314269526064,"66":-0.02072341619466932,"67":-0.03820924465096385,"68":0.05111462819771395,"69":0.010929733006442536,"70":-0.0195772702456793,"71":0.00998907742916364,"72":0.03540609245659061,"73":-0.05165209577313636,"74":0.028812497751820855,"75":0.07798115254179527,"76":0.004814053186561493,"77":0.005964502451086144,"78":-0.03312479000173858,"79":0.03929300873060946,"80":-0.02402701364659421,"81":-0.028786059940127978,"82":-0.03839417190142996,"83":-0.008683408746947535,"84":0.048135565202443616,"85":-0.030731004162009325,"86":-0.023734955774071066,"87":-0.011655331410303095,"88":0.05753186217561888,"89":-0.015937486018619877,"90":-0.02289563115277489,"91":0.028161411195239492,"92":-0.029104912146400774,"93":-0.04394930776956059,"94":0.0028934674170227864,"95":0.012680871171502395,"96":0.02426774652775847,"97":-0.037352522142354974,"98":0.007404656088707488,"99":0.012848264170751869,"100":0.05826222889876701,"101":0.01566025385349497,"102":-0.041289465319903886,"103":-0.04160714263943747,"104":-0.06033009678026326,"105":0.010644996689623522,"106":-0.03040861635820946,"107":0.03309068408949744,"108":-0.05171620238888444,"109":-0.06952349025215562,"110":0.015568748025149527,"111":-0.08217039829473083,"112":-0.02106823600148864,"113":-0.04246580373601603,"114":-0.00571521580186497,"115":0.03669660605580194,"116":-0.05649085317002797,"117":-0.032161945664098614,"118":0.07295134853079428,"119":-0.021055909793809904,"120":0.05005474230891893,"121":-0.05645249698036198,"122":0.01053188498579565,"123":0.060353908272215005,"124":0.0060249854335942135,"125":0.028797996943739464,"126":-0.037522831348657706,"127":-0.024431498049654797,"128":-0.06925817871168544,"129":-0.017315734676241288,"130":-0.0063887421067254984,"131":-0.005499512320712509,"132":-0.06410989573884222,"133":-0.02796640924938409,"134":-0.05890522244526282,"135":-0.036164601813642026,"136":0.022420013179889193,"137":-0.1401989986810436,"138":0.046064930012915346,"139":0.054188731479001113,"140":0.052347762695177324,"141":-0.06922312167795747,"142":-0.0015879112314729905,"143":0.05621100392902256,"144":0.033737198730442355,"145":-0.05162163501300845,"146":0.043789755007890584,"147":-0.040067187902706934,"148":0.027409751250721242,"149":-0.010090675065812486,"150":0.002368306388110317,"151":-0.05888335589303004,"152":-0.06154199048132976,"153":-0.0636461404985729,"154":0.024700159333759707,"155":-0.053985767414177835,"156":-0.1022500403785516,"157":-0.008161364176556316,"158":0.02011345230631187,"159":-0.0031057213462234545,"160":0.005422122867034528,"161":-0.07301355881362573,"162":0.05837719274575274,"163":0.011561784200530705,"164":0.06191027696416279,"165":0.014585620999903683,"166":0.05832221337819279,"167":0.015915011737443047,"168":-0.0027735844581788316,"169":-0.03164885442578988,"170":-0.020143685442122448,"171":-0.004259087753109263,"172":-0.03474018844115526,"173":0.013504535252894113,"174":0.10875879963819507,"175":0.025933041571712372,"176":0.03794378501480494,"177":0.05222197623151169,"178":0.040878496597657375,"179":-0.03492021362657231,"180":0.012309403711148335,"181":0.004704040350913094,"182":0.083858258675357,"183":-0.027225625101195132,"184":-0.05088112960222935,"185":-0.06093077989404641,"186":-0.031215986038827106,"187":0.017823819544617755,"188":-0.03294348954223063,"189":0.05214203537609851,"190":0.027692923575115755,"191":-0.02817532045051829,"192":0.021668602906173735,"193":0.0386597516983038,"194":-0.015043829383787288,"195":-0.00392337380546219,"196":0.05563193815372567,"197":-0.033311066828699075,"198":0.010307046971234154,"199":0.007545240693911643,"200":0.014443884664088451,"201":-0.05222862194100197,"202":-0.056939696738227984,"203":-0.0922585093445982,"204":-0.07779882484542162,"205":-0.03861782521913171,"206":0.08246481864189378,"207":0.019011093512223205,"208":0.0020301669234879835,"209":0.005172978725231526,"210":0.10568385306813903,"211":-0.0064193586019263135,"212":-0.02037856888408442,"213":-0.02562105376088713,"214":-0.010722406822980977,"215":-0.0196165718631572,"216":-0.03600005351517079,"217":-0.028541122078079878,"218":0.05975986782577618,"219":-0.009623463749239771,"220":0.039662999713033276,"221":-0.045572703183999266,"222":0.02665027918343299,"223":-0.10112221848250653,"224":-0.07763584115563864,"225":-0.039288643280745494,"226":-0.03531031467220385,"227":0.013874944637470566,"228":-0.025251531212748715,"229":-0.04262180087499574,"230":0.041382138417466297,"231":0.03678510374576351,"232":-0.0709686344897826,"233":0.03557511485581063,"234":-0.027403926437823706,"235":-0.03909732952035069,"236":-0.039930840473200765,"237":-0.0494572679976479,"238":0.008739447772590532,"239":0.046750157339482484,"240":0.0413776124744827,"241":-0.011909933056473355,"242":0.01435635447183274,"243":0.03481685935755651,"244":0.006946826522469499,"245":0.00831200674169775,"246":0.03955458994362499,"247":0.02814511983102824,"248":0.001909657485187891,"249":0.020774199739636658,"250":-0.10082969747597184,"251":0.11505867722254828,"252":-0.08408428683368722,"253":-0.00744544499689694,"254":-0.005418348207049522,"255":-0.04804453435059729,"256":-0.030857305361896896,"257":-0.09671543018730384,"258":0.003559801740317078,"259":0.08582428807432184,"260":-0.022285570266993952,"261":0.0319269931039168,"262":-0.011470620115592698,"263":0.00197832798843698,"264":0.02445132446602653,"265":0.03667824587093808,"266":-0.025134136197282313,"267":-0.02704987640155386,"268":0.03316323222352493,"269":0.013908659115943682,"270":-0.004121347252766004,"271":-0.08262350025840758,"272":-0.0035324838676466792,"273":0.010717968931816292,"274":-0.08244866674599398,"275":0.037936745362598515,"276":0.09429806083998632,"277":-0.03056014891105647,"278":-0.07231076534106634,"279":0.02082623276463771,"280":0.05418393374314976,"281":0.037513837245034896,"282":-0.04101425439557521,"283":-0.02599398470799724,"284":-0.04260924155468359,"285":-0.028272222660149168,"286":0.023995372242790195,"287":0.0073032918081059614,"288":-0.07030557291007264,"289":-0.01130132715317705,"290":-0.04348754497564959,"291":-0.011384957905143815,"292":-0.07289742603419636,"293":0.02610895977826451,"294":0.025490724466801704,"295":-0.0047986070675732646,"296":0.006458027449686737,"297":0.07958594876872827,"298":-0.05490506329515624,"299":-0.05125794457441666,"300":-0.024302251352669058,"301":0.0462205743874572,"302":-0.028076397950064884,"303":-0.1313583351015068,"304":-0.0211522958050948,"305":0.010640516662180957,"306":0.06276191617116275,"307":-0.020208454287184336,"308":-0.0008953487371986661,"309":0.05113458633950081,"310":0.08618111340073206,"311":0.10566383602976645,"312":0.03966741792173314,"313":0.004556481440264615,"314":0.02465651138287404,"315":-0.02096783309434396,"316":0.007731045470357734,"317":-0.061446837387420676,"318":0.06674346945876433,"319":-0.10706902330110477,"320":0.06203922292307515,"321":-0.06708271289206003,"322":-0.04799009108470572,"323":0.02523000297072118,"324":0.018880270070443225,"325":-0.01740235283473105,"326":-0.017729306776405676,"327":-0.03514581435353828,"328":0.08031057182807971,"329":-0.05134612149739405,"330":-0.02784066317531153,"331":0.012298864707078725,"332":0.03462531668756399,"333":0.056718353521904984,"334":-0.01961718320288586,"335":-0.004656246653827639,"336":0.04218488906106515,"337":0.026650442898885074,"338":0.07858195413602975,"339":-0.004264539648571362,"340":-0.10205866250172213,"341":0.03529250394370241,"342":-0.015280600284839675,"343":-0.05426059463217244,"344":0.023458262225886428,"345":0.0390453462411826,